15 300 40
resource=httpwwwwikidataorgentityql=member -8.391106966882944E-4 -9.162526112049818E-4 6.954104173928499E-4 1.7397000920027494E-4 -0.0010476812021806836 9.627643739804626E-4 0.0014908778248354793 2.3043626242724713E-6 7.190751493908465E-4 -3.109403478447348E-4 0.0014179992722347379 -7.81196285970509E-4 -0.0011294950963929296 -9.64329345151782E-4 -0.0013479164335876703 0.0012482213787734509 0.0016747149638831615 0.0015712255844846368 -0.0014424265827983618 -5.567519474425353E-5 7.493285229429603E-4 -7.457058527506888E-4 -2.6002873710240237E-5 -0.0013492375146597624 0.0014610273065045476 0.001258416916243732 3.014847752638161E-4 7.406993972836062E-5 -0.0010151620954275131 0.001041367300786078 7.252327632158995E-4 -0.001137588988058269 1.400377368554473E-4 1.7392245354130864E-4 5.618830909952521E-4 0.0011073605855926871 3.255275951232761E-4 -1.0398554150015116E-4 -5.564760649576783E-4 4.2033163481391966E-5 2.0398644846864045E-4 4.087633278686553E-4 2.339634665986523E-4 0.0011107948375865817 -7.086857222020626E-4 0.0015245357062667608 -0.0010913049336522818 -0.0014860278461128473 -0.0015633795410394669 4.698853590525687E-4 0.0015248217387124896 -6.700881058350205E-4 0.0010144156403839588 9.214284364134073E-4 -9.90309752523899E-4 8.114126976579428E-4 0.0011113123036921024 0.0012289824662730098 -0.0010137660428881645 -0.0016263092402368784 0.0010064176749438047 3.873948662658222E-5 4.430156259331852E-4 0.0016290097264572978 0.001333796652033925 -0.001576922950334847 0.001282064476981759 -4.957094206474721E-4 0.0013740586582571268 4.55395202152431E-4 7.410386460833251E-4 0.0014157879631966352 -5.436090286821127E-4 -0.0016506172250956297 4.980710400559474E-6 0.0013652569614350796 9.738425724208355E-4 -1.5105801867321134E-4 3.7574031739495695E-4 7.948743586894125E-5 7.365522324107587E-4 -0.001315305707976222 -0.0011870075250044465 -0.0011860186932608485 7.930804858915508E-4 0.0012253258610144258 0.0011937562376260757 0.0013535309117287397 0.0012946076458320022 -9.17764671612531E-4 -0.001146781025454402 -3.070918028242886E-4 0.0014739822363480926 -0.0011084506986662745 -9.767322335392237E-4 7.590465247631073E-4 -3.767734160646796E-4 -0.0010824135970324278 -2.2529982379637659E-4 -6.137682357802987E-4 -0.0012160534970462322 -2.873965131584555E-4 -9.707447024993598E-4 5.728474934585392E-4 6.297541549429297E-4 7.136653293855488E-4 9.44742641877383E-4 -0.0010786184575408697 2.763348675216548E-5 -0.0015453436644747853 -1.1114578228443861E-4 6.628602859564126E-4 4.987553111277521E-4 -1.1208943033125252E-4 0.0014542872086167336 -1.5205740055534989E-4 7.964560645632446E-4 -1.4388775161933154E-4 0.001617163885384798 -0.0015643708175048232 -4.147277504671365E-4 7.410162361338735E-4 -0.0016022220952436328 1.3465578376781195E-4 5.434859776869416E-4 -0.0011269230162724853 0.0013289113994687796 -4.654709773603827E-4 -7.178090745583177E-4 -2.5726252351887524E-4 0.001028340426273644 -0.0016679319087415934 -1.1095769878011197E-4 -9.783606510609388E-4 -5.257415978121571E-5 0.001506318454630673 6.518510635942221E-4 -0.0011166466865688562 0.0013063391670584679 -0.0015270167496055365 9.7691232804209E-4 -2.851147437468171E-4 7.320065633393824E-4 6.880743894726038E-4 9.63388301897794E-5 3.387636097613722E-4 -7.741301669739187E-4 8.714961040823255E-6 -0.0015064140316098928 -2.9094520141370595E-4 1.0579412628430873E-4 -0.0015362207777798176 0.00164128839969635 -0.0014489011373370886 -0.0015472237719222903 9.96628892607987E-4 -0.0012577238958328962 9.422987350262702E-4 3.1227892031893134E-4 4.392504633869976E-4 4.5866778236813843E-4 -0.0013685482554137707 0.0015348392771556973 -0.0011368624400347471 0.0010886809322983027 -7.828365778550506E-4 -0.0011681945761665702 3.9837969234213233E-4 3.171829448547214E-4 -0.0015556595753878355 0.0016656817169860005 -6.990605616010725E-4 -0.0014158053090795875 -9.420621790923178E-4 4.6031121746636927E-4 6.19454134721309E-4 -9.539921302348375E-4 8.256396977230906E-4 8.181386510841548E-4 -3.8420100463554263E-4 5.426424322649837E-4 6.154426955617964E-4 -7.96885637100786E-4 5.145041504874825E-4 0.00126484630163759 -1.1906713189091533E-4 7.885141531005502E-4 0.0011413362808525562 -7.844175561331213E-4 -1.861362106865272E-4 -6.873526144772768E-4 -5.636622081510723E-4 -3.446888003963977E-4 -0.0014166273176670074 -6.252555758692324E-4 0.0012169014662504196 0.001047229627147317 -3.4348052577115595E-4 0.0016178707592189312 7.55867047701031E-4 -7.642533164471388E-4 0.0013321981532499194 -8.953753276728094E-4 -0.0012913743266835809 -0.0010065550450235605 0.0012304569827392697 -0.001022652955725789 1.0240603296551853E-4 -7.329698419198394E-4 -2.9434016323648393E-4 6.979220197536051E-4 -1.771592505974695E-4 -0.0012171046109870076 -7.309080683626235E-4 0.0013222148409113288 -0.0012782306876033545 0.00138667703140527 1.9363277533557266E-4 -0.001154437311924994 -9.622690849937499E-4 0.0015872757649049163 0.0013596138451248407 6.515173299703747E-5 -8.090358460322022E-4 8.815106702968478E-4 0.0014162351144477725 -5.1463230192894116E-5 5.593805690295994E-4 0.0012160727055743337 -4.56351728644222E-4 5.629615625366569E-4 0.0016253573121502995 -5.554609233513474E-4 0.0011643159668892622 -7.494625169783831E-4 -0.0012943836627528071 -3.554876893758774E-4 -0.0014175793621689081 -0.001224747858941555 0.0010120597435161471 -0.0015691063599660993 -0.0011187084019184113 -8.45257454784587E-5 7.747670169919729E-4 0.0010474887676537037 7.705512107349932E-4 -0.0010328409262001514 0.0016293056542053819 9.800854604691267E-4 9.365063160657883E-4 0.001465995330363512 -3.249315486755222E-4 5.436521605588496E-4 4.1537918150424957E-4 -7.41451804060489E-5 6.864580209366977E-4 8.551761857233942E-4 3.663492971099913E-4 1.67568025062792E-4 -3.126428637187928E-4 -1.1548115435289219E-4 0.0014340255875140429 -0.0015555385034531355 -0.0013153463369235396 0.0013260107953101397 -4.55059198429808E-4 -0.001252160407602787 -3.11383482767269E-4 -4.5745610259473324E-4 -1.4411812298931181E-4 3.2381628989242017E-4 0.0014607649063691497 0.001277691451832652 -4.889044212177396E-4 0.0013329823268577456 -0.0014037694782018661 -0.0012435695389285684 7.651990745216608E-4 -4.6404218301177025E-4 0.0012354666832834482 -0.0012623805087059736 -0.0010178656084463 -0.0012211118591949344 0.001297950278967619 4.106333653908223E-4 0.00137204525526613 0.0015421226853504777 -8.334111771546304E-4 7.36437039449811E-4 0.0013187822187319398 6.386797849700088E-6 6.313512130873278E-5 -0.0012777609517797828 0.0012667742557823658 -3.983606584370136E-4 -2.5141320656985044E-4 -0.0010523139499127865 -3.1879296875558794E-4 5.498784012161195E-4 2.3579051776323467E-4
berlin@entotaledge=^^<httpwwwworgxmlschema#integer> 0.0014779436169192195 -0.0014091903576627374 0.0012278788490220904 -4.251583304721862E-4 -5.15674939379096E-4 0.0015587835805490613 9.637661278247833E-4 -4.097391793038696E-4 -7.791052339598536E-4 3.764380526263267E-4 4.5039737597107887E-4 0.001135529950261116 -0.00105697987601161 8.33307858556509E-4 -9.836272802203894E-4 -5.035316571593285E-4 9.020489524118602E-4 -7.409120735246688E-5 5.965087912045419E-4 0.0013867064844816923 -5.623386241495609E-4 0.001243626931682229 -0.0013595080235973 7.224615546874702E-4 6.262304959818721E-4 -0.0017441257368773222 -0.0013944004895165563 4.4785975478589535E-4 0.0013064384693279862 -2.548224001657218E-4 -5.173301906324923E-4 -0.0015506165800616145 2.5930571609933395E-6 8.101380662992597E-4 -0.0013826708309352398 5.626346683129668E-4 -7.99069763161242E-4 7.286897744052112E-4 -8.532408974133432E-4 0.0011473901104182005 4.3946143705397844E-4 -9.214110905304551E-4 5.899043753743172E-4 7.700839196331799E-4 2.083931176457554E-4 -0.0010957849444821477 4.896807949990034E-4 -9.379290277138352E-4 4.537396307568997E-4 -0.0015100733144208789 0.0014892119215801358 2.0762231724802405E-4 5.337718757800758E-4 3.0155733111314476E-4 0.0013451233971863985 0.0014747094828635454 -6.231431616470218E-4 -0.0016245837323367596 -0.0011878851801156998 -3.857681804220192E-5 3.7791579961776733E-4 0.001004583085887134 -3.9145900518633425E-4 2.9548080055974424E-4 -4.490050778258592E-4 -1.233144666912267E-5 -8.612698293291032E-4 -3.3599138259887695E-4 7.576264906674623E-4 1.642305142013356E-4 1.856690796557814E-4 0.001178436796180904 7.945891702547669E-4 -4.467390535864979E-4 -0.001344099990092218 -2.672303526196629E-4 -8.722926722839475E-4 9.280057856813073E-4 9.692965249996632E-5 0.0010242791613563895 0.0014953712234273553 7.627849699929357E-4 -0.0014331260463222861 1.649320802243892E-5 -0.0010125541593879461 -0.0014803963713347912 -5.82460721489042E-4 0.0014676711289212108 4.48770122602582E-4 -0.0014478567754849792 0.0011576651595532894 -0.0011496997904032469 -2.7584754207055084E-5 0.001433874131180346 4.8431873437948525E-4 -2.2701980196870863E-4 0.0013669898035004735 -4.7157841618172824E-4 -0.0013768249191343784 0.0014878081856295466 -3.024124598596245E-4 0.0010453358991071582 0.0017341597704216838 5.472370539791882E-4 6.371833733282983E-4 8.398135541938245E-4 6.216497276909649E-4 -0.001198716345243156 0.0017133844085037708 5.48413023352623E-4 0.00101201212964952 -9.466295596212149E-4 4.132677859161049E-4 2.3179093841463327E-4 0.0015870798379182816 3.5040598595514894E-4 0.0012609822442755103 0.0013976657064631581 3.667399287223816E-4 5.811548908241093E-4 -9.725267882458866E-4 -4.902404180029407E-5 3.287459257990122E-4 -9.666081168688834E-4 0.0014981237472966313 2.3432617308571935E-4 -9.714052430354059E-4 -0.0017387850675731897 -0.0014689293457195163 2.99246225040406E-4 3.2843273947946727E-4 3.459474246483296E-4 2.3479972151108086E-4 -0.0010080380598083138 -3.960178219131194E-6 2.3267409414984286E-4 0.0011624537874013186 -0.0017616829136386514 -7.487059920094907E-4 0.0014286160003393888 0.0013690072810277343 0.0017439268995076418 -0.001355081214569509 -5.219927406869829E-4 -0.0012932111276313663 -4.1846753447316587E-4 1.9504029478412122E-4 5.88908966165036E-4 -5.774037563242018E-4 4.892787546850741E-4 1.3257062528282404E-4 0.001449385192245245 0.0011256290599703789 -0.0015289922012016177 2.3691191745456308E-4 -0.0017393446760252118 -0.0013158167712390423 2.5462915073148906E-4 -9.474436519667506E-4 0.0012561425101011992 5.157396080903709E-4 0.0015505620976909995 -0.0015687306877225637 -8.994860108941793E-4 0.0015286263078451157 -0.001543031306937337 9.15836644708179E-5 -3.1991396099328995E-4 7.853985880501568E-4 0.001709222444333136 -5.390133010223508E-4 -3.671117592602968E-4 -6.938549340702593E-4 0.0013609544839709997 7.959023350849748E-4 3.0950509244576097E-4 -7.974952459335327E-4 0.0010901825735345483 9.451329824514687E-4 0.0015857795951887965 -0.0014627681812271476 7.284098537638783E-4 -2.036170772043988E-4 -0.0013996812049299479 -0.0014959289692342281 -0.001242989208549261 0.0011993012158200145 -0.0010894100414589047 -1.7942521662916988E-4 -2.21895010326989E-4 -6.411796784959733E-4 -6.878991262055933E-4 -6.335137877613306E-4 4.625333076546667E-6 6.08758011367172E-4 -0.0013059620978310704 9.53954819124192E-4 0.0015868517803028226 8.74008284881711E-4 -9.539339225739241E-4 3.544965584296733E-4 -2.3673717805650085E-4 -0.0015146363293752074 0.001012552180327475 0.0018025594763457775 -0.0015689226565882564 -5.343459197320044E-4 -9.596732561476529E-4 -3.2825872767716646E-4 4.1225930908694863E-4 0.001109109609387815 0.0011413644533604383 7.788687362335622E-4 -0.001552979345433414 -0.001649175421334803 2.7804140700027347E-4 -0.0014112081844359636 -9.869853965938091E-4 -9.286328568123281E-4 6.412610528059304E-4 -6.79886870784685E-5 -0.001184917869977653 -0.0013320762664079666 0.0015521952882409096 -3.969491517636925E-4 -0.0013364836340770125 -6.328189047053456E-4 -0.0014263568446040154 -0.0017134352819994092 5.295444279909134E-4 -8.704438369022682E-5 7.304564933292568E-4 -0.001391691155731678 -2.351836592424661E-4 0.0014908118173480034 1.0020927584264427E-4 -0.0012258534552529454 -0.0014967747265473008 7.871937123127282E-4 -0.0015816370723769069 -6.582249770872295E-4 9.822803549468517E-4 -4.356752924650209E-6 -0.0011834539473056793 7.847827509976923E-4 -0.0013730613281950355 4.1853764560073614E-4 -0.0011310064001008868 9.958832524716854E-4 -8.572515216656029E-4 6.412164657376707E-4 2.173729008063674E-4 6.97053677868098E-4 -0.0011558178812265396 -0.0012476714327931404 8.219178416766226E-4 0.0015565515495836735 9.757733205333352E-4 -5.938903195783496E-4 -0.0013705946039408445 -0.0012847942998632789 -4.872308054473251E-4 -0.0011659451993182302 -3.3504192833788693E-4 -9.307858417741954E-4 -7.292680675163865E-5 4.89792029839009E-4 -8.271216065622866E-4 -7.320459117181599E-4 -0.0011543853906914592 8.599673747085035E-4 -0.0015999535098671913 0.0016179252415895462 6.414063391275704E-4 -0.0014580761780962348 -2.9745145002380013E-4 7.648433675058186E-4 -7.525415276177227E-4 0.0010848352685570717 0.0016020718030631542 -1.8716437625698745E-4 -3.0469040211755782E-5 8.780881762504578E-4 -0.0014501844998449087 -0.0010681774001568556 0.0011749659897759557 5.531220231205225E-4 -8.081853738985956E-4 -0.0016920972848311067 -0.001704084686934948 0.0015111014945432544 7.127679418772459E-4 -0.001802317681722343 0.001135636935941875 6.164147052913904E-4 2.6121316477656364E-4 3.4040905302390456E-4 0.001094500650651753 -6.479081348516047E-4 -5.069819162599742E-4
in -0.0011205809423699975 -0.0013981430092826486 9.291194728575647E-4 -6.507404614239931E-4 -0.0016519707860425115 3.417783591430634E-4 3.11102659907192E-4 -7.311899680644274E-4 -4.5653109555132687E-4 3.451616794336587E-4 9.214895544573665E-4 -4.304162212065421E-5 7.649734034202993E-4 3.852552908938378E-4 -0.0013807659270241857 -4.181925323791802E-4 -1.5023458399809897E-4 0.0015115182613953948 5.872112233191729E-4 -0.0014853192260488868 0.0011335600866004825 -4.1941835661418736E-4 -2.6600834098644555E-4 -6.973871495574713E-5 2.973205118905753E-4 -9.289047447964549E-4 -1.8129406089428812E-4 4.26241138484329E-4 -0.0012964055640622973 -8.58729996252805E-4 -0.0012712725438177586 -0.0014553958317264915 -2.9663395253010094E-4 -4.369410453364253E-4 7.334990659728646E-4 8.317478350363672E-4 -4.892445940640755E-5 -9.618453914299607E-4 0.0011216866550967097 0.0015976770082488656 -0.0014871039893478155 -0.0015718430513516068 -5.623414181172848E-4 -5.410356097854674E-4 -4.4356762373354286E-5 -7.254991214722395E-4 -2.0338842296041548E-4 2.9014631763857324E-6 0.0012348296586424112 -8.46516340970993E-4 -0.0012122432235628366 0.0011057285591959953 -7.638976094312966E-4 -5.990767967887223E-4 2.3612691438756883E-4 3.3642910420894623E-4 -0.0010248649632558227 0.0015622525243088603 -8.501127595081925E-4 1.693754456937313E-4 -6.606165552511811E-4 -5.56407670956105E-4 -1.4868719154037535E-4 -0.0011265127686783671 -0.001256409683264792 -0.0013809502124786377 -3.533530616550706E-5 0.0015765996649861336 -2.7580548703554086E-5 -0.0014578379923477769 -3.389491466805339E-4 4.371332179289311E-4 -0.0010022338246926665 -0.0015238838968798518 9.982541669160128E-4 -0.00148455158341676 -0.0016056481981649995 -8.517415844835341E-4 -0.001370914513245225 0.001191988936625421 -0.0014344211667776108 -4.1446497198194265E-4 -0.0014503279235213995 4.711999208666384E-4 1.3267590838950127E-4 -6.281094392761588E-4 -0.001006254111416638 0.001294479938223958 6.520437891595066E-4 -2.3575151863042265E-4 2.1909951465204358E-4 9.064771584235132E-4 -3.774833749048412E-4 -5.997966509312391E-4 -1.9731748034246266E-4 2.615709090605378E-4 9.328360902145505E-4 -0.0014989145565778017 9.467858471907675E-4 6.933992262929678E-4 0.0010227380553260446 -0.001610166858881712 -4.904212546534836E-4 7.963902899064124E-4 -0.0013418870512396097 5.539985140785575E-4 0.0012038894928991795 9.52330359723419E-4 -0.0014543375000357628 -7.775293197482824E-4 -2.73035402642563E-4 9.538395534036681E-5 -8.731419802643359E-5 -4.217838868498802E-4 -2.4728558491915464E-4 8.968135807663202E-4 -1.379029854433611E-4 -0.001087893731892109 4.2975449468940496E-4 6.148488610051572E-4 0.0013147358549758792 1.397493906551972E-4 -0.001332120387814939 4.2380791273899376E-4 0.00140406284481287 -6.187979015521705E-4 0.0016686625313013792 0.0014260491589084268 0.0014635119587182999 2.6940018869936466E-4 8.734638686291873E-4 0.0012450332287698984 -0.0013763927854597569 3.59994126483798E-4 -0.001322645228356123 8.632458047941327E-4 1.689554046606645E-4 0.0013833495322614908 -8.5976324044168E-4 -1.2955952843185514E-4 -4.0964866639114916E-4 5.666760262101889E-4 5.2203387895133346E-5 -0.0013777026906609535 -9.922204772010446E-4 -0.0012280531227588654 9.95931914076209E-4 2.85375484963879E-4 -2.0591083739418536E-5 -7.356839487329125E-4 0.0013738872949033976 2.2406263451557606E-4 -0.0014811881119385362 -0.001380808767862618 5.584353348240256E-4 6.67413289193064E-4 -2.0861244411207736E-4 0.0012317805085331202 -0.0015115184942260385 -7.509979332098737E-5 -7.931584259495139E-4 0.001244212151505053 7.444118964485824E-4 3.7445133784785867E-4 0.0016159538645297289 -6.770964828319848E-4 0.0011827893322333694 -3.1860024319030344E-4 0.0012157626915723085 -6.228040438145399E-4 0.0015949797816574574 -0.001558620948344469 -2.977791882585734E-4 2.0260168821550906E-4 1.1941951015614904E-5 0.0012674888130277395 5.153585807420313E-4 -0.0012133780401200056 5.614607944153249E-4 -0.0015646035317331553 0.0010718925623223186 0.0015414080116897821 1.032888685585931E-4 0.0011566657340154052 -0.0012553940759971738 -0.0011960890842601657 -9.675113833509386E-4 5.534937008633278E-5 3.9808618021197617E-4 0.0015087989158928394 0.0013652751222252846 -9.13636467885226E-4 -9.271540911868215E-4 0.0011717402376234531 0.0010401424951851368 -1.148881929111667E-4 9.766952134668827E-4 -0.001628689467906952 0.0016131870215758681 -4.946130211465061E-4 -0.001174028031527996 2.8261388069950044E-4 0.001480831648223102 0.0010132036404684186 -6.982102640904486E-4 0.0013561281375586987 -0.001140400068834424 -9.905401384457946E-4 -8.493210189044476E-4 0.001519349287264049 0.0012917215935885906 -2.1972230751998723E-4 -0.0012876978144049644 0.001225427957251668 -2.018036029767245E-4 3.038215800188482E-4 -0.001211950439028442 3.1275898800231516E-4 6.73534581437707E-4 -0.0014516015071421862 0.0011948129395022988 0.0013503383379429579 3.879544383380562E-4 -9.988589445129037E-4 -4.0745336445979774E-4 -0.0015850571217015386 0.0010402650805190206 3.8754651905037463E-4 -0.0012443310115486383 -6.233484018594027E-4 -0.0010610963217914104 -6.935550482012331E-5 7.997766952030361E-4 1.126741772168316E-4 3.7803046870976686E-4 0.0011280233738943934 -5.04884694237262E-4 0.001392386737279594 2.803023198794108E-5 5.4595362598774955E-5 -0.0015876505058258772 -2.530835918150842E-4 8.900781976990402E-4 -5.155455437488854E-4 -1.1069130414398387E-4 3.4573112498037517E-4 4.628527312888764E-5 -1.8967869982589036E-4 0.001334758591838181 5.706732627004385E-4 -6.990437977947295E-4 1.1019338853657246E-4 -3.8347794907167554E-4 -7.645335281267762E-4 -0.0016265480080619454 9.908095235005021E-4 0.001251131296157837 -0.0011763495858758688 -0.0014554986264556646 4.954113974235952E-4 2.3843480448704213E-4 -0.0013377818977460265 7.724163588136435E-4 5.918761598877609E-4 -0.0010691731004044414 7.050120620988309E-4 -8.367543923668563E-4 1.0249535989714786E-4 7.85399111919105E-4 0.0015594388823956251 9.027192136272788E-4 -0.0013342128368094563 -2.8914198628626764E-4 -9.555752039887011E-4 -0.001539747347123921 -0.0010363381588831544 9.088173392228782E-4 9.126376244239509E-4 3.219873469788581E-4 -0.0015010848874226213 0.0012322489637881517 5.847712745890021E-4 6.958695012144744E-4 5.005840794183314E-4 -0.001374554354697466 -7.588291191495955E-5 -2.7345336275175214E-4 0.001235306030139327 0.0013615029165521264 1.9632592739071697E-4 -3.5048479912802577E-4 -0.0014355306047946215 8.500013500452042E-4 -8.997392724268138E-4 -0.001193069270811975 -9.726604330353439E-4 0.001430165022611618 -0.0016028364188969135 8.654031553305686E-4 0.0012533559929579496
republic -0.001337112975306809 -9.627347462810576E-4 -0.0015360338147729635 2.671794791240245E-4 5.829098518006504E-4 -2.6728762895800173E-4 0.0011631931411102414 -2.4546022177673876E-4 -7.918030023574829E-4 9.090554085560143E-4 -7.379195303656161E-4 -0.0013535079779103398 0.0011214354308322072 8.278492168756202E-5 -0.0015262564411386847 -5.768283153884113E-4 -1.272290392080322E-4 4.708928754553199E-4 0.0013527865521609783 0.001410753233358264 0.0010253509972244501 0.0012083721812814474 -0.0013017604360356927 6.751620676368475E-4 -6.657583871856332E-4 -0.0010229324689134955 -0.0016765431500971317 -0.0011567671317607164 2.1935667609795928E-4 -0.0014029813464730978 -3.9925603778101504E-4 9.656386100687087E-4 -0.0013634782517328858 -9.381704730913043E-4 1.6863759083207697E-4 8.61563952639699E-4 0.0016525951214134693 -0.0013485187664628029 -6.260478403419256E-4 -9.284226107411087E-4 3.8815417792648077E-4 -0.0011949681211262941 7.615938666276634E-4 -9.3695080067846E-6 -8.024430135264993E-4 0.0015836412785574794 0.0010431472910568118 -4.7904549865052104E-4 -0.0013123097596690059 -3.18902573781088E-4 8.314748993143439E-4 2.987151383422315E-4 9.760800749063492E-4 -1.4259980525821447E-4 -0.0010270315688103437 -8.589020580984652E-6 0.001061983872205019 1.8375182116869837E-4 -5.256077929516323E-5 -4.409303655847907E-4 0.0015385422157123685 -1.5475695545319468E-4 4.012011340819299E-4 -0.0013634143397212029 3.5252817906439304E-4 3.248534048907459E-4 -0.001372138736769557 0.001658084918744862 0.001475249184295535 -0.001065517426468432 -0.001498913043178618 -4.0854295366443694E-4 -7.434620056301355E-4 -0.0016127064591273665 0.00128890888299793 9.023966849781573E-4 -1.7308264796156436E-4 -2.5735609233379364E-4 -0.001303626224398613 0.0014159594429656863 -4.93914179969579E-4 9.50035682762973E-5 0.001454756362363696 6.21985163888894E-5 8.870357851264998E-5 0.0016200258396565914 -0.0010919703636318445 9.035346447490156E-4 3.3904644078575075E-4 -3.5684023168869317E-4 0.0010124130640178919 -1.9251256890129298E-4 0.0011742841452360153 -5.225323839113116E-4 -6.058407598175108E-4 -6.105490028858185E-4 0.0011169480858370662 -0.0015202974900603294 1.2651539873331785E-4 8.02623457275331E-4 8.939046529121697E-4 7.353174732998013E-4 -5.844327970407903E-4 -0.0014969594776630402 0.001130090095102787 7.626060396432877E-4 0.0015860667917877436 -7.898258627392352E-4 -5.689321551471949E-4 0.0010952004231512547 4.0706139407120645E-4 -0.0010556257329881191 3.0983155738795176E-5 -0.0014897307846695185 0.0013204728020355105 0.0015955548733472824 7.872448768466711E-4 0.001062624854966998 -0.001234167255461216 9.090592502616346E-4 5.604056641459465E-4 -0.0013797355350106955 9.500246960669756E-4 8.117094985209405E-4 -4.906442482024431E-4 -0.001636248780414462 0.0011422977549955249 4.757137503474951E-4 -3.4525207593105733E-4 -9.319529053755105E-4 -0.0013418227899819613 -0.001587783801369369 0.0011992048239335418 -5.3266230679582804E-5 3.9294379530474544E-4 0.0014843360986560583 -0.0013194398488849401 5.917243543080986E-4 4.2997783748432994E-4 0.0015640482306480408 -9.452623198740184E-4 9.147108066827059E-4 -0.001061340095475316 -5.486095906235278E-4 6.864850292913616E-4 -4.6277616638690233E-4 9.4283175712917E-5 -9.102168260142207E-4 -0.0015803228598088026 0.0014103369321674109 0.001670943689532578 -0.001625414239242673 -2.189454680774361E-4 2.3750934633426368E-4 -0.001240287907421589 -1.6346757183782756E-4 8.347608963958919E-4 0.0014784116065129638 -0.001535999123007059 8.641480235382915E-4 9.08257847186178E-4 4.4849657570011914E-4 0.0012659752974286675 0.0014427128480747342 -7.505301618948579E-4 0.0014176920522004366 -0.0013835047138854861 -3.7005561171099544E-4 -5.278939352137968E-5 -0.0015043620951473713 -3.549675748217851E-4 0.0012909898068755865 -1.0547321289777756E-4 0.001488906447775662 5.044862627983093E-4 0.0012655481696128845 -7.556974305771291E-4 2.061008708551526E-4 -0.0015399574767798185 -3.325330908410251E-5 0.0016581591917201877 -0.0013765140902251005 7.451987476088107E-4 0.0016061313217505813 -9.241849766112864E-4 -1.8399965483695269E-4 2.407849024166353E-5 -8.232753607444465E-4 7.305465987883508E-4 -4.84803895233199E-4 -3.5840632335748523E-5 9.408346159034409E-6 9.633532026782632E-4 -0.0011998871341347694 0.0013673532521352172 0.0011804832611232996 -0.001057030982337892 -2.1609454415738583E-4 0.0014685576315969229 -2.704389626160264E-4 4.6759459655731916E-4 -0.0010903000365942717 -5.050260224379599E-4 -7.964001852087677E-4 -9.306460560765117E-5 -2.5790900690481067E-4 -1.7821119399741292E-4 -0.0014652122044935822 -9.41997452173382E-4 0.0011416464112699032 6.963027408346534E-4 -0.0015725450357422233 0.0016015613218769431 -0.0013079612981528044 -0.0011974682565778494 -2.7502808370627463E-4 -8.475215872749686E-4 -1.8053264648187906E-4 -2.9836021712981164E-4 0.001228082226589322 6.626598187722266E-4 0.0012408897746354342 8.328467956744134E-4 3.721021130331792E-5 -2.637217694427818E-4 6.394521333277225E-4 2.685753279365599E-4 4.654194344766438E-4 7.784122717566788E-4 5.54016005480662E-5 -8.147114422172308E-4 -2.1300194930518046E-5 -5.397840868681669E-4 0.001606025849469006 -4.6104390639811754E-4 -9.700714144855738E-4 0.0013853581622242928 -0.001440085587091744 -8.47012153826654E-4 -3.790585324168205E-4 -7.149005541577935E-4 -0.0013160720700398088 -0.0011161791626363993 3.788030589930713E-4 -0.0010459346231073141 -0.0014056835789233446 -0.0016751409275457263 0.001362755079753697 5.608496721833944E-4 -3.27827176079154E-4 -0.0010116631165146828 3.7196066114120185E-4 0.0013306248001754284 0.0015468463534489274 6.059804582037032E-4 0.0012277155183255672 0.0012026181211695075 2.7413282077759504E-4 -0.0014338986948132515 -8.919499814510345E-4 -9.550182148814201E-4 -3.776031080633402E-4 5.387079436331987E-4 1.5141880430746824E-4 0.0010640479158610106 -2.8156445478089154E-4 -4.636671219486743E-4 8.98222322575748E-4 0.0013854550197720528 -0.0015178427565842867 -0.0011962888529524207 -9.491348173469305E-4 -0.001291988417506218 -0.0012701154919341207 9.616484749130905E-4 -9.335682261735201E-4 5.350966239348054E-4 -6.132294074632227E-4 -0.0011856898199766874 6.090766401030123E-4 7.691453793086112E-4 0.0013041014317423105 -7.774958503432572E-4 -6.71118323225528E-4 -7.127560675144196E-4 -0.0015520501183345914 6.477102288044989E-4 3.141029446851462E-5 -2.7443055296316743E-4 7.441544439643621E-4 0.0014571836218237877 3.5622919676825404E-4 5.239304155111313E-4 -0.0011756838066503406 -6.068742950446904E-4 4.543377726804465E-4 5.597375566139817E-4 2.893796481657773E-4 5.507979585672729E-5 0.0015442412113770843
university -9.363298304378986E-4 9.105399367399514E-4 4.8808393330546096E-5 6.486761849373579E-4 -2.6001676451414824E-4 0.0013484045630320907 6.767852464690804E-4 1.323406759183854E-4 -9.079190203920007E-4 0.0015803996939212084 0.0010475391754880548 0.001248864340595901 -6.664592074230313E-4 6.442159647122025E-4 2.998438139911741E-4 0.001040457864291966 -9.79097792878747E-4 -7.663450087420642E-4 -0.0016087358817458153 -6.525183562189341E-4 -0.0010647703893482685 0.0011572918156161904 -3.952132537961006E-4 2.2076470486354083E-4 5.73816301766783E-4 6.259512156248093E-4 3.29177244566381E-4 -7.738664280623198E-4 0.0014328922843560576 -0.001439104089513421 -0.001654869643971324 9.758087689988315E-4 -4.161930410191417E-4 -0.0014019914669916034 -5.071252817288041E-4 -8.643376058898866E-4 -0.0016325978795066476 2.5382719468325377E-4 -9.296138305217028E-4 7.909939158707857E-4 5.22791116964072E-4 -3.7739850813522935E-4 9.086051722988486E-4 -0.0012249918654561043 -3.4288110327906907E-4 -8.967800531536341E-4 -0.0016660275869071484 -1.0230138514089049E-6 0.0012473935494199395 -3.448640927672386E-5 6.53632334433496E-4 7.482424261979759E-4 1.8247580737806857E-4 3.6263572837924585E-5 0.0014777628239244223 6.7496596602723E-4 8.1519695231691E-4 -1.768741203704849E-4 0.0013920640340074897 -9.174470906145871E-4 -3.74964700313285E-4 -1.0768148058559746E-4 0.0015385288279503584 -4.3717920198105276E-4 5.957750836387277E-4 -0.0013092482695356011 -3.311345062684268E-4 -8.801413932815194E-4 -2.3356372548732907E-4 -0.0017401902005076408 -0.0016079626511782408 -9.256426128558815E-4 -7.329445797950029E-4 -4.1601681732572615E-4 -8.360979845747352E-4 -0.001582403085194528 1.0490544082131237E-4 -0.0016422774642705917 -9.742439578985795E-5 6.927434005774558E-4 7.033985457383096E-5 9.243297972716391E-4 0.0013085112441331148 0.0013535863254219294 0.0015461686998605728 1.0636101069394499E-4 6.027515046298504E-4 0.0011442615650594234 -0.0012061307206749916 8.211861131712794E-4 0.0016813726397231221 -5.337924812920392E-4 0.0014064924325793982 -2.1009737974964082E-4 -4.2452322668395936E-4 -0.001082555390894413 -4.7849901602603495E-4 7.368151564151049E-4 -8.385746332351118E-5 -0.0014110777992755175 -0.0014042663387954235 0.0012505239574238658 1.6478339966852218E-4 -0.001669137505814433 0.0015378955285996199 0.0015418595867231488 -0.0013344513718038797 7.966741104610264E-4 0.001177717582322657 -0.001214635674841702 5.427306750789285E-4 0.001200746395625174 5.289765540510416E-4 6.91890949383378E-4 0.0014689834788441658 -6.05375156737864E-4 0.0013659546384587884 4.040608473587781E-4 4.4672415242530406E-4 0.0010807488579303026 -0.001212849747389555 9.173564030788839E-4 -9.826738387346268E-4 -0.0011325582163408399 -9.196364553645253E-4 9.552204282954335E-4 -1.3280691928230226E-4 -7.865725201554596E-4 0.0015273424796760082 -0.0010402239859104156 -0.0010428321547806263 1.741275773383677E-4 -0.0015290234005078673 -6.186645478010178E-4 0.0015616505406796932 -1.5477459237445146E-4 9.925974300131202E-4 0.0012418231926858425 0.0017181291477754712 3.064987831749022E-4 -0.0012126488145440817 -4.322945314925164E-4 0.001024217694066465 3.093438281212002E-4 1.5005414024926722E-4 5.35367289558053E-5 -0.0010897319298237562 -0.0014203557511791587 -8.894294733181596E-4 -0.0014041519025340676 0.001227734494023025 2.744909143075347E-4 0.0012672899756580591 -0.0016610537422820926 0.0010343566536903381 4.239172558300197E-4 -0.001604176126420498 0.0013745978940278292 6.458941788878292E-5 -8.596805273555219E-4 6.173844449222088E-4 1.8378578533884138E-4 -0.0012752722250297666 6.70986482873559E-4 7.506435504183173E-4 8.247426012530923E-4 -0.0011493924539536238 4.4754904229193926E-4 -0.0016165981069207191 0.001258819829672575 -6.156698218546808E-4 -0.001236047362908721 -2.0773799042217433E-4 0.0010686656460165977 0.0013321813894435763 -3.1858962029218674E-4 0.0014208736829459667 0.0010450631380081177 1.929697100422345E-5 0.00116757582873106 -1.610228355275467E-4 -0.0014008755097165704 -9.623572259442881E-5 -3.0429373146034777E-4 -0.0013749201316386461 -5.423525581136346E-4 -0.0012405186425894499 -8.082902058959007E-4 7.94876177678816E-5 -8.494131616316736E-4 -0.0015036932891234756 3.1068726093508303E-4 -1.0461714555276558E-4 2.468980965204537E-4 -0.0012476469855755568 4.6966230729594827E-4 0.0013838446466252208 3.693533653859049E-4 -7.813402044121176E-5 6.544366478919983E-4 0.0014903342816978693 7.136459316825494E-5 1.419685868313536E-4 -8.447880973108113E-4 -1.1236889258725569E-4 -8.385935798287392E-4 2.845457929652184E-4 2.802020753733814E-4 0.0011589756468310952 4.6985410153865814E-4 -0.0010765113402158022 9.97393624857068E-4 0.0013112161541357636 0.0010456927120685577 -0.0015941120218485594 -1.7610337818041444E-4 0.0010846089571714401 0.0016363206086680293 -0.0015974510461091995 6.597027531825006E-4 0.0012490765657275915 -8.577702683396637E-4 -0.0017621904844418168 1.7672506510280073E-4 -0.0016324453754350543 -3.418130218051374E-4 1.2807794519176241E-5 2.0993585349060595E-4 -9.575454751029611E-4 8.594223763793707E-4 -0.0012305231066420674 -0.001477047218941152 0.001562486169859767 7.974700420163572E-4 0.001045642071403563 -5.822837119922042E-4 -2.494248328730464E-4 0.0010962144006043673 -6.643796805292368E-4 0.001045052777044475 -0.0011872833129018545 0.0016227883752435446 -6.104223430156708E-4 -9.093909175135195E-4 1.606402511242777E-4 7.906922837719321E-4 0.0015126951038837433 0.0010404555359855294 -1.425254304194823E-4 -7.582360412925482E-4 0.001022127689793706 -0.0016646301373839378 -3.4529430558905005E-4 -3.398378976271488E-5 3.135316073894501E-4 9.157241584034637E-5 6.442999620048795E-6 2.6807672111317515E-4 -4.577965592034161E-4 5.067728343419731E-4 0.0013979854993522167 3.3867155434563756E-4 1.9183453696314245E-4 -4.060502105858177E-4 -0.0010839886963367462 0.0014827830018475652 -0.0016330309445038438 7.800276507623494E-4 7.734419195912778E-4 -4.2601293534971774E-4 -0.0015889729838818312 2.6294883355149068E-5 0.0012695718323811889 -7.78048939537257E-4 0.0010142239043489099 0.0016485044034197927 -1.867462560767308E-4 -4.686643078457564E-4 -0.0012509984662756324 0.001424015499651432 0.0012353473575785756 -1.1921420809812844E-4 -9.989013196900487E-4 0.001160097774118185 9.212737786583602E-4 -0.0012187949614599347 6.329580210149288E-4 -0.0012703344691544771 -8.404335239902139E-4 1.5982473269104958E-4 7.12635344825685E-4 -5.11035650561098E-5 -0.0013426484074443579 0.0014707803493365645 8.33568163216114E-4 -0.0011341349454596639 0.0014436437049880624 -0.0010437106247991323 0.0012034799437969923 0.0011429970618337393
for 9.298458462581038E-4 -5.112604703754187E-4 -7.518866914324462E-4 4.778294824063778E-4 -7.43408570997417E-4 0.001690675038844347 -0.0011149767087772489 -0.0012264850083738565 -4.46048507001251E-4 -8.654638659209013E-4 -0.0013431229162961245 0.0010468641994521022 -0.0013635391369462013 4.833163693547249E-4 0.0016036552842706442 9.508528164587915E-4 9.970456594601274E-4 -7.752385572530329E-4 -2.8941890923306346E-4 1.8953284597955644E-4 4.640871484298259E-4 6.180410855449736E-4 -9.628021507523954E-4 0.001399488071911037 5.169192445464432E-4 3.129143806290813E-5 0.0011418622452765703 0.0011378483613952994 7.81554845161736E-4 -0.0013514711754396558 -0.0013760559959337115 0.0012496388517320156 -4.6879093861207366E-4 -7.070262799970806E-4 2.3694128321949393E-4 -1.9939390767831355E-4 -5.876626819372177E-4 4.7458664630539715E-4 -1.0283682058798149E-4 9.333727066405118E-4 -5.137224798090756E-4 0.0015090997330844402 -6.720073870383203E-4 4.7083827666938305E-4 2.5477565941400826E-4 0.0013964904937893152 -0.0010708519257605076 7.870954577811062E-4 0.0010599526576697826 5.732963909395039E-4 0.0012467955239117146 0.001640451606363058 -7.694007945246994E-5 -7.43090349715203E-4 7.307353080250323E-4 0.0016522282967343926 0.0011567006586119533 0.0010112086310982704 -8.055620128288865E-4 3.208147536497563E-4 5.150213837623596E-4 -2.2251221525948495E-4 0.0010398364393040538 -0.0012691218871623278 9.177105384878814E-4 8.337044855579734E-4 -6.151882698759437E-4 -3.385657037142664E-4 -7.076451438479125E-4 5.31161087565124E-4 7.223006687127054E-4 7.373938569799066E-4 -0.0010750747751444578 0.0013136945199221373 -8.115827804431319E-4 8.331182471010834E-5 0.0015924643957987428 0.0014846669510006905 -2.736783935688436E-4 9.816237725317478E-4 1.2067086208844557E-4 -8.823215612210333E-4 -0.001371506485156715 -2.2678563254885375E-4 -0.0011437383946031332 -4.2051286436617374E-4 -0.001056729000993073 3.922441101167351E-4 -3.026640915777534E-4 7.286927429959178E-4 -0.0016333506209775805 -0.0011411706218495965 4.965890548191965E-4 -2.628914953675121E-4 -7.664705044589937E-4 0.0010786232305690646 -4.672332725021988E-4 0.0011815978214144707 4.384532803669572E-4 -5.022975383326411E-4 -5.018460215069354E-4 0.00158549880143255 6.873035454191267E-4 -2.3571928613819182E-4 -4.1253879317082465E-4 -2.076106966342195E-7 0.0011495198123157024 -1.526924897916615E-4 3.4341574064455926E-4 0.0016497531905770302 -0.0010216017253696918 0.0010971075389534235 -0.0011002070968970656 -0.0016724324086681008 -0.001034251181408763 8.681800682097673E-4 -4.022935754619539E-4 -0.0016334798419848084 -3.7263406557030976E-4 -9.84835671260953E-4 0.001241303514689207 -0.0014547813916578889 -1.9784795586019754E-4 9.016434196382761E-4 -9.419156122021377E-4 1.655522355576977E-4 0.001037340727634728 -0.0013012002455070615 -9.527881629765034E-4 -0.0016609564190730453 4.2633735574781895E-4 -0.0012910518562421203 -8.713315473869443E-4 -5.398978828452528E-4 5.722136120311916E-4 1.0156509961234406E-4 -4.4792250264436007E-4 -0.0011543077416718006 4.326806520111859E-4 -1.5930397785268724E-4 6.251882296055555E-4 -4.3861899757757783E-4 -0.001429834752343595 1.671690260991454E-4 4.476401227293536E-5 -0.0014979878906160593 0.0013938596239313483 -0.0015414371155202389 -9.72474692389369E-4 -1.7934813513420522E-4 0.001603820943273604 -0.001507738372310996 -9.23205865547061E-4 -8.157368283718824E-4 -6.07204157859087E-4 -7.665800512768328E-4 0.0016279503470286727 1.1210131197003648E-4 -8.49655014462769E-4 -0.0013053908478468657 7.181872497312725E-4 -8.441995596513152E-4 9.533895645290613E-4 4.5036509982310236E-4 -0.0012048588832840323 -3.41176928486675E-4 0.0011611729860305786 -6.862888112664223E-4 -1.4753727555216756E-5 -7.991561433300376E-4 1.5287291898857802E-4 -0.0015079773729667068 -0.001269240048713982 -5.5459295253967866E-5 0.0012510779779404402 -0.0014924050774425268 2.8991090948693454E-4 1.5104652266018093E-4 2.259803150082007E-4 -6.629232666455209E-4 -0.0013259012484923005 3.220522776246071E-4 4.5079446863383055E-4 -0.0015074217226356268 4.5119121205061674E-4 -0.0010693997610360384 -9.952087420970201E-4 0.0013716493267565966 -5.645848577842116E-4 -2.976818068418652E-4 0.001115359365940094 -3.307699807919562E-5 -3.0982919270172715E-4 4.471187712624669E-4 -0.001425728783942759 0.0015681831864640117 8.078041137196124E-4 4.4778434676118195E-4 -2.47881660470739E-4 0.0012510701781138778 -0.00129214848857373 -5.775181925855577E-4 -3.2812549034133554E-4 -2.8872027178294957E-4 6.712595350109041E-4 -7.670168997719884E-4 2.191012754337862E-4 0.0010534072062000632 -6.72316673444584E-5 7.828875095583498E-4 8.74204037245363E-4 -3.6481415008893237E-5 8.466446888633072E-4 2.6780672487802804E-4 -7.818281301297247E-4 -1.1552585783647373E-4 -5.997584667056799E-4 3.727009752765298E-4 -9.05211956705898E-4 -2.8975860914215446E-4 6.129728280939162E-4 5.277591408230364E-4 6.115676951594651E-4 -7.741363333479967E-6 -5.436126957647502E-4 2.0620222494471818E-4 -3.8896186742931604E-4 -7.743013557046652E-4 -0.0016010699328035116 -6.072880350984633E-4 -6.867284537293017E-4 9.868554770946503E-4 -0.001392641570419073 -0.0013528484851121902 6.69047178234905E-4 -0.0010887678945437074 0.0010827310616150498 9.900701697915792E-4 -0.0015498826978728175 -9.35058225877583E-4 -0.0011353862937539816 -0.0013370682718232274 -2.93685938231647E-4 8.609705255366862E-4 0.0015569847309961915 7.398101151920855E-4 -4.060485662193969E-5 -7.51203391700983E-4 -0.0014850441366434097 0.0013674458023160696 0.0013695302186533809 0.0013852419797331095 6.847645272500813E-4 3.485021588858217E-4 0.0014605482574552298 -9.688863065093756E-4 -5.565857863985002E-4 -9.358114912174642E-4 -1.5407447062898427E-4 -1.3222925190348178E-4 -0.0013414263958111405 6.988318637013435E-4 0.0012222948716953397 -0.0016076936153694987 1.5105098100320902E-5 9.537473670206964E-4 -0.0016428871313109994 -4.189933533780277E-4 -9.94497793726623E-4 -0.0015111833345144987 0.0011482363333925605 2.848156727850437E-4 0.0011453258339315653 -4.6634464524686337E-4 -4.288705822546035E-4 2.778807538561523E-5 8.553734514862299E-4 4.5485858572646976E-4 9.705359698273242E-4 0.001203077146783471 4.924031672999263E-4 4.91596401843708E-5 0.0010382197797298431 -6.88502041157335E-4 0.0013896172167733312 5.788570269942284E-4 -7.505426183342934E-4 -3.4684871206991374E-4 -8.018935332074761E-4 -9.920221054926515E-4 0.0014543444849550724 0.0010404972126707435 7.83563416916877E-4 8.911063196137547E-4 1.5689691645093262E-4 -0.0010748194763436913 0.0014035188360139728 1.7408191342838109E-4 -1.8656188331078738E-5 -0.0015207831747829914
germany@entotaledge=^^<httpwwwworgxmlschema#integer> 0.001211681286804378 0.0012784597929567099 9.226676193065941E-4 -0.0013051441637799144 -6.336018559522927E-4 0.0018868864281103015 -7.403278723359108E-4 2.3233941465150565E-4 -9.692130843177438E-4 3.1836889684200287E-4 0.0013897112803533673 0.0017215792322531343 -0.0017128579784184694 2.2873962006997317E-4 -3.10849049128592E-4 -5.869974265806377E-4 -0.0015078205615282059 -2.825397823471576E-4 -0.0016174985794350505 -3.211585571989417E-4 -3.765360452234745E-4 0.001246606931090355 9.362151613458991E-4 0.0013436911394819617 -5.303326179273427E-4 -0.0014419648796319962 -4.839900793740526E-5 -0.0012745535932481289 7.949574501253664E-5 -5.531170754693449E-4 -0.0016856075963005424 -0.0011467988369986415 -0.0010095209581777453 -7.140804082155228E-4 1.5187618555501103E-4 -0.001239762525074184 0.00164740567561239 0.0013965170364826918 0.0011714999563992023 0.0017324284417554736 -4.3381372961448506E-5 -0.0013074391754344106 -1.9108326796413166E-6 -8.357611368410289E-4 -0.0011255923891440034 2.0524901628959924E-4 -0.0014233437832444906 7.950956933200359E-4 0.0013953407760709524 -0.0012073065154254436 -6.0156179824844E-4 -9.804674191400409E-4 -8.975827950052917E-4 0.0011076292721554637 -7.958777714520693E-4 -0.001494244090281427 0.001222705002874136 -5.36582141648978E-4 1.9437789160292596E-4 -0.0011525177396833897 -6.224358221516013E-4 7.104732794687152E-4 -0.0012094882549718022 -0.0015543050831183791 3.9152157842181623E-4 -6.43882140138885E-6 0.0014283665223047137 -0.0011547001777216792 -0.0014588403282687068 -0.0016291338251903653 4.3059620657004416E-4 0.0010151274036616087 6.123450584709644E-4 1.103697741200449E-5 -4.766233032569289E-4 -0.0015636950265616179 0.0015292110620066524 -9.956486755982041E-4 0.001136102480813861 2.945864252978936E-5 0.001744288601912558 -0.0013589354930445552 -3.469471412245184E-4 1.0023982031270862E-4 -0.0013884407235309482 9.418506524525583E-4 1.0641182598192245E-4 -1.9367996719665825E-4 -6.932842079550028E-4 -0.001004307297989726 3.132553829345852E-4 -0.0017273759003728628 -0.0015261241933330894 0.0013207773445174098 -7.016102317720652E-4 -0.001192533178254962 -9.672527085058391E-5 -3.123275237157941E-4 0.001158595085144043 -5.680007161572576E-4 0.0014088909374549985 0.0016280116979032755 0.0016480861231684685 -6.117855664342642E-4 0.0011498181847855449 9.804600267671049E-5 4.245624295435846E-4 -5.707670352421701E-4 4.8512601642869413E-4 -1.5261751832440495E-4 0.001671281293965876 0.001475771889090538 -0.001092543127015233 -0.0011143569136038423 -3.6995450500398874E-5 -0.0010697654215618968 0.0011433549225330353 -0.001547659165225923 1.9045069166168105E-6 -2.483485732227564E-4 6.089052185416222E-4 0.001185280387289822 0.001465931418351829 -8.971296483650804E-4 -3.371750935912132E-4 -0.0017768352990970016 2.298618055647239E-4 -0.001382086775265634 4.928579437546432E-4 -0.0010894141159951687 -0.0015191469574347138 3.843489394057542E-4 0.0010756761766970158 7.86622753366828E-4 0.001257914467714727 -0.0016642258269712329 0.0016150765586644411 -0.0010739871067926288 0.0011052197078242898 -6.94326008670032E-4 -0.0010356898419559002 0.001726224203594029 5.600037984549999E-4 0.0011644181795418262 0.0013494588201865554 -2.6467928546480834E-4 -9.086878271773458E-4 -4.3214994366280735E-4 -4.309493306209333E-6 5.868408479727805E-4 -3.406371979508549E-5 0.001018783776089549 -9.402967989444733E-4 7.298844284377992E-4 -5.760453059338033E-4 -8.502376731485128E-4 3.8296886486932635E-4 9.566593216732144E-4 -9.068428771570325E-4 -8.866173448041081E-5 1.1827020352939144E-4 -0.0012928053038194776 8.311955607496202E-4 4.065953253302723E-4 0.0010045745875686407 -0.0012175723677501082 -0.0013452160637825727 1.5584043285343796E-4 0.0016081902431324124 1.710692304186523E-4 0.0010988503927364945 -6.995656876824796E-4 1.7852638848125935E-4 -0.0015019699931144714 4.0336037636734545E-4 -1.451381394872442E-4 7.701473659835756E-4 0.0016068703262135386 2.0706577925011516E-4 -0.00127997319214046 -3.6696306779049337E-4 9.026768384501338E-4 0.0015514041297137737 -5.191672826185822E-4 -0.0015454801032319665 -2.9732080292887986E-4 -5.957279354333878E-4 -0.001604018034413457 0.0011850041337311268 2.1529871446546167E-4 -3.9966114854905754E-5 -6.023947498761117E-4 0.001662973314523697 6.131461123004556E-4 -4.03838959755376E-4 -0.001382203190587461 -7.339147268794477E-4 3.907785867340863E-5 0.0013760406291112304 -0.0013690695632249117 2.2110210557002574E-4 -0.001254345290362835 -0.0014188175555318594 -6.117314478615299E-5 1.0684424341889098E-4 -0.0018189336406067014 -0.001096330932341516 -9.58892167545855E-4 -3.893962420988828E-4 0.0013700817944481969 -0.0014201070880517364 0.0013101319782435894 0.0012295147171244025 -6.865873583592474E-4 -3.8428709376603365E-4 -0.0018072539241984487 -8.168810745701194E-4 0.0014266401994973421 -0.0014240220189094543 -0.0011882185935974121 0.0011834331089630723 -2.7577459695748985E-4 -0.001188860391266644 5.297645693644881E-4 -0.0014325396623462439 5.325796082615852E-4 0.0014133204240351915 -2.0553778449539095E-4 3.3492779039079323E-5 -0.0016997044440358877 -0.0018795935902744532 -8.01770540419966E-4 7.266493048518896E-4 -0.001011169282719493 -6.096269135014154E-5 -6.387695320881903E-4 -0.0015775200445204973 -7.973978063091636E-5 -4.0094813448376954E-4 -9.371555643156171E-4 6.808266625739634E-4 4.768364015035331E-4 -4.2618290171958506E-4 -3.8116791984066367E-4 0.0012323595583438873 1.6120329382829368E-4 -0.001263258745893836 8.288488024845719E-4 7.389591191895306E-4 -0.001583416247740388 -8.267283556051552E-4 -0.001573719666339457 -0.0015893335221335292 -4.872846184298396E-4 -0.0014318423345685005 -2.5185581762343645E-4 3.99880635086447E-4 5.569243221543729E-4 2.6278189034201205E-4 -0.001493093091994524 5.502076237462461E-4 8.491475018672645E-4 -5.799331702291965E-4 8.665478671900928E-4 -0.0016693304060027003 -4.0938585880212486E-4 0.0014938447857275605 -1.65217395988293E-4 8.256541332229972E-4 -8.87016300112009E-4 1.965082628885284E-5 1.4184207248035818E-4 5.790482391603291E-4 -0.0014427719870582223 -0.0018556556897237897 -1.9686541054397821E-4 0.0012398000108078122 9.077239083126187E-4 -4.849513934459537E-4 -2.3226154735311866E-4 -0.001528996741399169 0.0012271428713575006 3.9805658161640167E-4 -1.6370465164072812E-4 0.0016475722659379244 5.050224717706442E-4 -8.960578124970198E-4 0.0016868480015546083 0.0013242190470919013 -4.249198900652118E-5 4.254803934600204E-4 -3.9774650940671563E-4 0.001085760653950274 -0.001418908010236919 0.0015964648919180036 6.248293211683631E-4 -9.483117028139532E-4 0.0018272609449923038 0.001430602977052331 -7.576793432235718E-4
merit -0.0014891953906044364 3.087444929406047E-4 2.811650629155338E-4 0.0014761349884793162 -3.735151549335569E-4 0.0010064828675240278 -0.0012067853240296245 9.654756868258119E-4 6.726804422214627E-4 4.8442816478200257E-4 0.0013040757039561868 -1.3588850561063737E-4 -6.190265412442386E-4 0.0012584535870701075 -2.116969262715429E-4 0.0015733635518699884 0.0012757971417158842 0.0014330375706776977 6.22882871539332E-5 2.5885706418193877E-4 -2.838136861100793E-4 0.0013398450100794435 -3.925170749425888E-4 -5.000561941415071E-4 -9.762827539816499E-4 0.0011142329312860966 -7.351509411819279E-4 -4.231589555274695E-4 3.251651069149375E-4 6.255417829379439E-4 2.195029373979196E-4 7.964363903738558E-4 -3.1024470808915794E-4 3.2809743424877524E-4 -6.627462571486831E-4 -3.256112686358392E-4 7.386161014437675E-4 4.5206837239675224E-4 -7.426347001455724E-4 8.562901639379561E-4 0.0010307787451893091 0.0010627411538735032 8.366282563656569E-4 9.942060569301248E-4 -9.03154315892607E-4 -0.0010671030031517148 -0.00124590122140944 2.8650849708355963E-4 0.0012707666028290987 2.959183184430003E-4 -2.963126462418586E-4 -7.538205827586353E-4 9.803381999518024E-7 9.95981739833951E-4 0.0011681299656629562 -4.5533166849054396E-4 7.698375848121941E-4 -9.505171910859644E-4 0.0012567277299240232 0.0011926265433430672 -4.601124965120107E-4 -2.2928141697775573E-4 -2.653573756106198E-4 -7.227459573186934E-4 -9.234817116521299E-4 -2.4212915741372854E-4 1.7266551731154323E-4 -0.0012444282183423638 -7.308086496777833E-4 8.0402399180457E-4 -8.756605529924855E-5 1.1011694004992023E-4 6.365006265696138E-5 -6.971461698412895E-4 -4.101055092178285E-4 -0.0016705009620636702 0.0011988001642748713 7.893011788837612E-4 3.9650831604376435E-4 -0.0013928040862083435 -0.001150590251199901 -7.062110234983265E-4 -8.18596628960222E-4 0.0016660309629514813 0.0010255600791424513 -0.0015066501218825579 -0.0015855508390814066 -5.309827974997461E-4 -0.0010699554113671184 7.218418177217245E-4 9.547995286993682E-4 -0.0010607036529108882 -5.287280073389411E-4 -0.0010372644755989313 5.979582783766091E-4 -0.0013985817786306143 2.453866181895137E-4 -5.986401447444223E-5 -2.830519515555352E-4 4.792213439941406E-4 4.851457488257438E-4 1.8884657765738666E-4 -7.034983718767762E-4 -8.964935841504484E-5 -5.3950461733620614E-5 -0.0015852823853492737 -1.2813475041184574E-4 4.0798127884045243E-4 -6.395418313331902E-4 2.866814029403031E-4 -0.0015219248598441482 -9.569010580889881E-4 0.0013112646993249655 2.2064587392378598E-4 -6.349464529193938E-4 -9.957193105947226E-5 0.0017124759033322334 1.6843597404658794E-4 -4.0435686241835356E-4 9.465541807003319E-4 0.001166247995570302 8.612787933088839E-4 0.001685204217210412 -0.0011627807980403304 -3.936324210371822E-4 1.7518155800644308E-4 6.968751549720764E-4 -2.9801682103425264E-4 -0.0010081820655614138 0.0015373829519376159 8.671467658132315E-4 -0.0012723617255687714 6.493573309853673E-4 0.0016479863552376628 -8.608370553702116E-4 -0.0013140386436134577 -2.293279831064865E-4 0.0015263683162629604 -6.754513597115874E-4 -1.1234972771489993E-4 0.0016257036477327347 1.4936228399164975E-4 -6.131044356152415E-4 -7.941585499793291E-4 6.215843604877591E-4 -0.0012229970889165998 -0.0012641899520531297 -0.0012945722555741668 9.210153366439044E-4 2.764596720226109E-4 0.001381045556627214 -0.0016051704296842217 0.0012104393681511283 -0.0014820832293480635 -1.5852536307647824E-4 -1.4246861974243075E-4 0.0012030836660414934 -6.078849546611309E-4 0.0010772600071504712 -6.208010599948466E-4 7.001369376666844E-4 -6.327877781586722E-5 -0.0016517821932211518 0.0015121233882382512 8.012244361452758E-4 3.899048315361142E-4 0.001586569705978036 0.0010083194356411695 -0.0014527455205097795 -0.001432107761502266 0.0010612341575324535 -2.60428263572976E-4 -4.296578699722886E-4 6.019878201186657E-4 -0.001441111322492361 -7.580416859127581E-4 -0.0016699880361557007 -4.022561479359865E-4 -0.0015348533634096384 3.2672344241291285E-4 4.695778770837933E-4 -0.0011507116723805666 -0.0016730291536077857 -8.733649156056345E-4 7.571004680357873E-4 -3.9763408130966127E-4 -5.705280927941203E-4 9.119506576098502E-4 -0.001633646315895021 0.001062139868736267 -5.790897994302213E-4 -0.0017321117920801044 -6.704601692035794E-4 4.416928277350962E-4 3.09338909573853E-4 0.0010323539609089494 4.5845910790376365E-4 0.0013629678869619966 0.0012410716153681278 -0.0010832776315510273 8.57261591590941E-4 -0.0011800207430496812 -0.001443592133000493 -0.0010424156207591295 2.397474308963865E-4 -4.918297054246068E-4 8.38523032143712E-4 6.642763037234545E-4 -9.083234472200274E-4 -0.0014473877381533384 8.436724892817438E-4 3.0832889024168253E-4 5.507963360287249E-4 -2.792061131913215E-4 7.844885694794357E-4 -0.0011001586681231856 9.18122474104166E-4 0.0012527384096756577 -0.0010109583381563425 9.632314322516322E-4 -9.660614305175841E-4 -0.0014188481727614999 -0.0014576875837519765 -3.260622179368511E-5 -3.264445986133069E-4 -0.0012355970684438944 -1.879255287349224E-4 0.0012310526799410582 -0.0014871516032144427 -2.99733568681404E-4 -1.4362628280650824E-4 5.074221407994628E-4 8.139851270243526E-4 9.055755217559636E-4 -2.7161379694007337E-4 -0.0012624585069715977 -5.222441395744681E-4 -0.0010530634317547083 4.7216375241987407E-4 5.131568759679794E-4 -4.5753971789963543E-4 0.0013581617968156934 -9.185867966152728E-4 -0.001502140425145626 2.488084137439728E-4 0.001509089139290154 -2.7802702970802784E-4 -2.371392838540487E-5 -4.942023078911006E-4 0.0016341587761417031 -0.0014227222418412566 -6.075156852602959E-4 8.026347495615482E-4 -0.0012485807528719306 0.001261235331185162 3.39290767442435E-4 -0.0011351772118359804 0.0011263692285865545 -0.0015446572797372937 -6.21162645984441E-4 0.001194161013700068 -0.0010937688639387488 4.964678664691746E-4 -0.0016419681487604976 -0.0017087985761463642 2.901050611399114E-4 -8.295158622786403E-4 0.0011282017221674323 4.828548990190029E-4 -5.799757782369852E-4 4.4018818880431354E-4 -3.633740998338908E-4 0.0011873932089656591 1.1151019134558737E-4 -0.0010537750786170363 0.0016524388920515776 -8.757522446103394E-4 2.9256203561089933E-4 -0.0015774201601743698 -0.0012585201766341925 -0.001553569221869111 9.555123397149146E-4 -9.577689343132079E-4 1.4190818183124065E-4 6.253374158404768E-4 -9.490002412348986E-4 -0.0010347485076636076 -0.0013456594897434115 0.0016126959817484021 8.688659290783107E-4 3.8322381442412734E-4 -0.0013304234016686678 0.0011755827581509948 0.0011324185179546475 -0.0012499196454882622 0.0016845469363033772 -1.1679657472996041E-4 5.26885618455708E-4 6.087413639761508E-4 -0.0013069480191916227
resource=httpwwwwikidataorgentityql=medal -0.0010274157393723726 0.0012908880598843098 -0.0014398667262867093 -4.1654257802292705E-4 0.0012162938946858048 0.0010162665275856853 0.0012555440189316869 1.5065347542986274E-4 3.942570183426142E-4 8.335384773090482E-4 1.7184422176796943E-4 0.0011688672238960862 -4.249534395057708E-4 6.609497941099107E-4 -0.0014773833099752665 -0.001550442073494196 -0.0010370387462899089 -9.69169894233346E-4 5.370126382331364E-5 -3.7660548696294427E-4 1.9337701087351888E-4 -0.0014695040881633759 -0.0013742477167397738 -0.0014456839999184012 -5.285870283842087E-4 -0.0016240812838077545 -5.640830495394766E-4 3.826410975307226E-4 -0.0016691630007699132 8.413114301220048E-6 -3.1142844818532467E-4 4.72729851026088E-4 2.634819829836488E-4 -0.001380781177431345 -0.00119428348261863 -8.694971329532564E-4 0.0016407582443207502 7.383166812360287E-4 -2.3570546545670368E-5 3.6334857577458024E-4 0.0013799297157675028 -7.247664034366608E-4 0.0013501757057383657 0.0016471853014081717 -0.0015975640853866935 9.436624241061509E-4 3.9702325011603534E-4 5.888967425562441E-4 -0.0011809346033260226 -1.5514013648498803E-4 5.34878927282989E-4 -0.0012471273075789213 -7.711690268479288E-4 -0.001192398020066321 -0.0012278440408408642 5.475192447192967E-4 3.299022209830582E-4 -7.405225187540054E-4 -0.0012015074025839567 0.001101439818739891 -6.986098924244288E-6 -8.700036560185254E-4 0.0014185939216986299 -0.0012600236805155873 -5.39005093742162E-4 -9.955093264579773E-4 0.0013685153098776937 -8.286900701932609E-4 -5.01703005284071E-4 1.076278422260657E-4 0.0012845511082559824 -3.614460292737931E-4 -0.0013818094739690423 0.001292508328333497 -7.536944467574358E-4 0.001297725597396493 -0.0014275204157456756 0.0013751308433711529 -0.0012879787245765328 8.201360469684005E-4 -2.636290155351162E-4 0.0014030867023393512 5.927197053097188E-4 0.0012855735840275884 -0.0016415021382272243 -3.467116766842082E-5 0.0015839303378015757 -0.0012835839297622442 -1.8786599684972316E-4 -7.500310312025249E-4 0.0014512547058984637 0.0012786241713911295 -6.434456445276737E-4 2.0661232701968402E-4 -9.21499275136739E-4 -0.001381590380333364 8.766013779677451E-4 5.318011390045285E-4 -5.422645481303334E-4 6.495596608147025E-4 3.253381000831723E-4 4.2313203448429704E-4 -0.0016320449067279696 -7.484143861802295E-5 -6.720987730659544E-4 -8.430032175965607E-4 -6.92495028488338E-4 0.001131987664848566 -2.468200691509992E-4 0.0013591680908575654 4.88889985717833E-4 0.0010220988187938929 8.039404638111591E-4 0.0012351524783298373 -2.4366193974856287E-4 6.107505178079009E-4 1.8551480025053024E-4 9.779413230717182E-4 3.184802189934999E-4 9.46923391893506E-4 0.0016151564195752144 1.7490012396592647E-4 -7.358488510362804E-4 -0.0015738315414637327 6.983905332162976E-4 0.0012228959240019321 -0.0015783630078658462 7.773767720209435E-5 0.0011213863035663962 -3.694560145959258E-4 -0.0012491615489125252 3.4265825524926186E-4 -4.797993751708418E-4 -0.0014805927639827132 -0.0016022310592234135 9.20734426472336E-4 -0.0010592120233923197 -0.001522597623988986 -1.1647814972093329E-4 -0.0013497928157448769 0.0012251902371644974 -3.31341550918296E-4 -0.0012656206963583827 -8.962028077803552E-4 -9.78559721261263E-4 0.00129050319083035 8.023959235288203E-4 -2.1434895461425185E-4 0.0014105362351983786 0.0010088849812746048 4.5699396287091076E-4 0.001559596974402666 7.310801884159446E-4 -8.30260047223419E-4 9.578379103913903E-5 -0.0012660196516662836 3.951628241338767E-5 3.081555769313127E-5 -0.001631477614864707 -2.4619390023872256E-4 -0.0015068476786836982 0.0014449084410443902 0.001074262778274715 4.634678189177066E-4 -0.0014368618139997125 -9.91173554211855E-4 -2.9883100069127977E-4 -0.0016105873510241508 1.4212778478395194E-4 -0.0016451342962682247 6.544463103637099E-4 -3.7575684837065637E-4 2.6780488042277284E-5 -8.955786470323801E-4 8.851187885738909E-4 2.888600865844637E-4 8.670480456203222E-4 6.399857811629772E-4 0.001174128265120089 -4.07832907512784E-4 2.513417257432593E-6 -7.670964114367962E-4 0.0011895482894033194 -9.661876247264445E-4 -1.1423502292018384E-4 -8.281293557956815E-4 1.320778828812763E-4 -4.48197650257498E-4 3.7287414306774735E-4 7.149904849939048E-4 -2.801026566885412E-4 -2.034315257333219E-4 0.0011397548951208591 -2.8653565095737576E-5 3.943725605495274E-4 -7.58435926400125E-5 -1.8367639859206975E-4 5.294082220643759E-4 3.6258068575989455E-5 -7.22964177839458E-5 2.436216891510412E-5 2.5635503698140383E-4 0.001514142844825983 0.001264002756215632 1.9475525186862797E-4 -9.094662964344025E-4 8.484115242026746E-4 0.0012906607007607818 -0.0015341199468821287 6.260094232857227E-4 0.0013137261848896742 1.6659275570418686E-4 1.5972551409504376E-5 -0.0010454898001626134 -0.0012062224559485912 -0.001467042020522058 -0.0011385002871975303 -8.366244146600366E-4 -0.0015910421498119831 4.4167402666062117E-4 -4.710314387921244E-4 -0.0011025776620954275 0.0014745437074452639 4.665720189223066E-5 8.964584558270872E-4 0.0011155924294143915 3.896733687724918E-4 -5.754150333814323E-4 -7.45990953873843E-4 -1.8990035459864885E-4 -6.882675806991756E-4 -6.036253762431443E-4 -6.070195231586695E-4 -0.0014768739929422736 -0.0015769966412335634 3.141957859043032E-4 5.281089688651264E-4 -0.0014110755873844028 -3.586135571822524E-4 -0.0012780176475644112 9.363939752802253E-4 -0.0015447160694748163 5.2544899517670274E-5 5.86680369451642E-4 -8.672684198245406E-4 3.131291305180639E-4 -0.0015047191409394145 -6.019289139658213E-4 0.0015963425394147635 -6.768464809283614E-4 1.541209167044144E-5 -9.604128426872194E-4 5.503373686224222E-4 -5.38509339094162E-4 -0.0015103884506970644 -0.0011062569683417678 9.463722817599773E-4 0.001282798359170556 -0.0010430826805531979 7.234467775560915E-4 0.0010644790017977357 -0.0011022785911336541 -0.0011117199901491404 -0.0012882610317319632 3.6612109397538006E-4 0.0016506158281117678 9.471863158978522E-4 -6.356647936627269E-4 -7.149270968511701E-4 -0.001224820502102375 -0.0012133467243984342 6.283536786213517E-4 -0.0012417940888553858 5.315726157277822E-4 -7.507887203246355E-4 -5.705411895178258E-4 2.466501791786868E-5 -2.7293007588014007E-4 -5.001274985261261E-4 0.0012133410200476646 5.415308987721801E-5 -8.275237632915378E-5 0.0014647608622908592 9.18178353458643E-4 0.0014697099104523659 0.0013421153416857123 -0.0011471015168353915 4.926822730340064E-4 -3.119473112747073E-4 -8.518912363797426E-4 1.3947312254458666E-4 0.0014647203497588634 -3.399495326448232E-4 3.456402337178588E-4 3.5938690416514874E-4 -0.0016121204243972898 3.031176747754216E-4 -0.0011395852779969573 -0.0015804067952558398 0.001427838229574263
the -1.505397231085226E-4 5.508512258529663E-4 0.0012609325349330902 -2.388417487964034E-4 -0.0016597555950284004 0.0021752207539975643 -7.025520317256451E-4 6.981880287639797E-4 0.0014378816122189164 0.0010764125036075711 0.0013508826959878206 -7.03917394275777E-5 2.9427569825202227E-4 7.848862442187965E-4 8.224280900321901E-4 5.964490119367838E-4 0.001253987313248217 6.468052160926163E-4 0.0012386554153636098 -0.0016443724744021893 1.7359692719765007E-4 0.0013186392607167363 6.231508450582623E-4 0.0012666357215493917 9.59792931098491E-4 -6.75916317049996E-6 -5.5301807151408866E-5 5.549892084673047E-4 -3.4526982926763594E-4 4.462025535758585E-4 8.860355010256171E-4 -4.3344448204152286E-4 3.8945695268921554E-4 -0.0019198324298486114 -0.0014198424760252237 9.573777206242085E-4 -7.28837912902236E-4 -5.32210455276072E-4 9.542339248582721E-4 8.212447864934802E-4 0.0016379640437662601 -6.053979159332812E-4 7.470085984095931E-4 -0.001198488287627697 6.277709035202861E-4 4.182824632152915E-4 -0.0017973576905205846 9.090302628464997E-4 7.436536834575236E-4 8.826891425997019E-4 -8.083052816800773E-4 -5.725767696276307E-4 -9.447747725062072E-4 -6.339979881886393E-5 0.0011786024551838636 0.001379483612254262 0.0013814395060762763 -9.174415026791394E-4 -5.316732567735016E-4 -1.3982078235130757E-4 0.001266741775907576 -6.5767572959885E-4 -0.001822625519707799 -4.346480418462306E-4 -3.767501038964838E-5 -0.0013313478557392955 -0.0018187114037573338 3.1824494362808764E-4 -5.243639461696148E-4 -7.906303508207202E-4 -0.00179134716745466 7.823310443200171E-4 -2.0887544087599963E-4 -0.0015336113283410668 -0.0015757846413180232 -3.796895907726139E-4 -0.0014221050078049302 -0.0013858989113941789 -0.001075355219654739 -0.0014265263453125954 9.911605156958103E-4 -0.0014479393139481544 -0.001260428805835545 -2.4428917095065117E-4 0.0011136347893625498 -0.0019433972192928195 0.0012196185998618603 1.4967953029554337E-4 6.059741717763245E-4 3.248081775382161E-4 0.0017224042676389217 -0.001470839837566018 -7.435104926116765E-4 0.0014848659047856927 -0.0016933727310970426 -9.869692148640752E-4 -5.1068633183604106E-5 -0.001094651990570128 0.0019081892678514123 0.0017460957169532776 -0.0013198570813983679 6.914676632732153E-4 -1.5160191105678678E-4 3.337380476295948E-4 -8.745481609366834E-4 -8.556457469239831E-4 -2.79529980616644E-4 0.0014608638593927026 6.931120879016817E-4 0.001791022252291441 5.488036549650133E-4 -0.0016152103198692203 0.0011359432246536016 -0.001447377260774374 3.771932824747637E-5 -6.339229294098914E-4 6.154641741886735E-4 -2.0032137399539351E-4 0.0016009201062843204 -8.090474875643849E-4 -0.001155451056547463 -0.0014317078748717904 -7.859445759095252E-4 0.0015165176009759307 8.73178883921355E-4 -9.218835621140897E-4 -9.071699460037053E-4 3.5219770506955683E-4 -0.0010346411727368832 -0.0014377484330907464 2.792577724903822E-4 -0.001604048884473741 2.779474307317287E-4 0.0018042995361611247 3.4489991958253086E-4 -3.7309477920643985E-4 -0.0013772724196314812 -0.0010586439166218042 7.16596667189151E-4 -0.00158250133972615 -1.2464831343095284E-5 -1.2158705067122355E-4 8.20412824396044E-4 -0.0018388503231108189 9.815703378990293E-4 -8.74624471180141E-4 -2.599535509943962E-4 9.460840956307948E-4 0.0013134359614923596 0.0017136791720986366 0.0018680434441193938 0.0017694623675197363 -2.1146425569895655E-4 -0.0017694792477414012 4.3894993723370135E-4 -0.0018328878795728087 9.003565646708012E-4 2.2970029385760427E-4 -1.4017807552590966E-4 6.055047269910574E-4 -0.0016583838732913136 0.0016681788256391883 -2.171767846448347E-4 -6.075302953831851E-4 -5.381531082093716E-4 -5.329086561687291E-4 0.0013290558708831668 0.0015264637768268585 -0.0010463969083502889 7.612736662849784E-4 -1.5957903815433383E-4 8.589660283178091E-4 2.8497021412476897E-4 -6.985300569795072E-4 0.001723949913866818 5.279660690575838E-4 6.655310862697661E-4 0.0020640743896365166 -1.553995389258489E-4 7.480120984837413E-4 0.0015655355527997017 -0.0010449228575453162 -2.0345357188489288E-4 3.1746263266541064E-4 3.218606871087104E-4 -0.0016818370204418898 -8.03483824711293E-4 -0.0013550412841141224 6.538874004036188E-4 7.623108103871346E-4 -1.0490315617062151E-4 -0.0019062462961301208 0.001625283039174974 -0.0016884864307940006 -3.791307972278446E-5 -0.0014630124205723405 -1.1375046597095206E-4 0.0016085697570815682 -2.2634501510765404E-4 -0.0016971604200080037 8.805406396277249E-4 -8.911078330129385E-4 -2.7041404973715544E-4 -0.0017716821748763323 0.0018942519091069698 -0.0018168428214266896 0.0013828316004946828 -0.0019783645402640104 4.897993640042841E-4 7.654431974515319E-4 1.0268505138810724E-4 -7.066050893627107E-4 0.0015220274217426777 -0.0018848131876438856 -0.0011584064923226833 -0.0018375827930867672 2.0896270871162415E-4 -6.239958456717432E-4 -6.197438342496753E-4 0.0013150296872481704 -6.190138519741595E-4 -0.0013709792401641607 0.0013594578485935926 -9.809244656935334E-4 -2.468509192112833E-4 -7.915821042843163E-4 0.0018706823466345668 -1.7849200230557472E-4 -6.463321624323726E-4 1.9070658890996128E-4 -0.0015356277581304312 -5.540571291930974E-4 0.0019379000877961516 -1.3597498764283955E-4 8.89735238160938E-4 -4.27594204666093E-4 -6.833959487266839E-4 -0.002002993132919073 0.0010735354153439403 -0.0011082726996392012 -0.0013163024559617043 -0.0011453925399109721 -0.0016066392417997122 0.0013739971909672022 -0.001212559174746275 -0.0012326083378866315 5.054354187450372E-5 -9.933215333148837E-4 -0.0012569994432851672 9.843147126957774E-4 8.129760390147567E-4 0.0011068761814385653 -3.7820488796569407E-4 -2.25768904783763E-4 -0.0012104916386306286 0.0013779043219983578 -0.0017948156455531716 -0.0012356340885162354 0.0010123871034011245 -0.0012766780564561486 6.202124641276896E-4 8.43748333863914E-4 0.001801963779143989 0.0017560662236064672 -0.001679680892266333 -8.827516576275229E-4 -3.660474612843245E-4 0.0010642288252711296 -7.973451283760369E-4 5.07202057633549E-5 -0.0014250196982175112 7.832206320017576E-4 0.0017697407165542245 -0.0014156176475808024 -0.0015541301108896732 6.689270958304405E-4 7.64605007134378E-4 -7.121706148609519E-4 0.001299553201533854 -0.0011175243416801095 9.124763892032206E-4 -6.312436889857054E-4 8.986552129499614E-4 1.576142676640302E-4 -0.0012848437763750553 5.131583020556718E-5 5.500621045939624E-5 6.004233728162944E-4 7.841990445740521E-4 -8.95843782927841E-4 -7.288890774361789E-4 0.0016051753191277385 -0.001679711858741939 0.001528921420685947 0.0019774807151407003 0.0020223045721650124 4.040609928779304E-4 0.0014866228448227048 -2.388639550190419E-4 -3.116568550467491E-4
of -0.00212758406996727 0.0010885148076340556 7.828465313650668E-4 -0.001216741045936942 -0.001046537421643734 -4.807407676707953E-4 -7.698893314227462E-4 -0.0015423253644257784 1.8209315021522343E-4 -7.783633773215115E-4 0.001595017034560442 -0.001539626275189221 -0.0012743326369673014 0.001166813774034381 6.966448854655027E-4 5.021345568820834E-4 -0.001073927152901888 -2.6029558284790255E-5 2.6266914210282266E-4 7.961702649481595E-4 -7.858801982365549E-4 -2.7383750420995057E-5 0.00152389460708946 -0.0011532874777913094 0.0020691619720309973 2.864676935132593E-4 6.54547184240073E-4 -0.0013793534599244595 2.6481333770789206E-4 3.501790342852473E-4 0.001796067925170064 4.940028302371502E-4 0.002247872529551387 -2.4041809956543148E-4 0.0018380108522251248 0.0010348313953727484 4.8233818233711645E-5 -0.0013882480561733246 0.00100745412055403 0.0014655748382210732 -4.6680966624990106E-4 -0.00186152383685112 0.0013677257811650634 -2.482014533597976E-4 9.470178047195077E-4 -4.600188694894314E-4 -0.0016579063376411796 -0.0019279239932075143 0.0013100635260343552 -1.5457173867616802E-4 -2.7351314201951027E-4 0.002181533956900239 3.609134873840958E-4 -0.002416516887024045 0.0017959055257961154 5.287813110044226E-5 0.0015328855952247977 2.55616003414616E-4 -0.0019246683223173022 0.001131509430706501 -0.0014566814061254263 9.014272945933044E-4 -0.0010145283304154873 -4.1035987669602036E-4 0.001166948233731091 -4.7463009832426906E-4 6.814212538301945E-4 0.0011193640530109406 -0.0018196281744167209 0.001873582135885954 -0.002000897889956832 -7.389975362457335E-4 1.2668498675338924E-4 0.001746764057315886 7.935511530376971E-4 6.396898534148932E-4 0.001719329389743507 0.0022357951384037733 -5.238706944510341E-5 -1.4965925947763026E-4 6.968688103370368E-4 -0.0017179420683532953 0.002077038399875164 3.627033729571849E-4 -0.0013690876075997949 0.0019319701241329312 -6.514366832561791E-4 0.002128263469785452 5.25786483194679E-4 -0.0012315503554418683 -0.0018836865201592445 0.0020955936051905155 0.002015006495639682 -6.842860020697117E-4 -2.505849697627127E-4 -0.0019348814385011792 -0.0013771913945674896 0.001300579053349793 -3.76420677639544E-4 -8.622728637419641E-4 0.0013668291503563523 0.0010314562823623419 7.763707253616303E-5 5.289030959829688E-4 0.0018158548045903444 0.0018841802375391126 7.787697250023484E-4 -7.027005194686353E-4 0.001841544290073216 -0.0019676515366882086 -0.0022555252071470022 -5.423454567790031E-4 0.0016401333268731833 0.0010792218381538987 -0.0011109489714726806 -0.0015077063580974936 -8.154225070029497E-4 0.001764472690410912 3.502055915305391E-5 -0.0012964773923158646 -0.0015020235441625118 -0.001738287857733667 0.0015717281494289637 0.0016364429611712694 0.0010840778704732656 -0.0018297163769602776 0.0021265388932079077 -0.0012240865034982562 -0.001596207031980157 0.001325282733887434 -4.559616791084409E-4 5.115933017805219E-4 0.001556488685309887 -0.001710977521724999 5.878760712221265E-4 -3.813754301518202E-4 -0.0020746104419231415 0.0018489486537873745 4.382438200991601E-4 0.0012002188013866544 -0.0016624180134385824 -2.5640654712333344E-5 5.854187766090035E-4 -5.485348810907453E-5 -0.002020576037466526 -0.0014488991582766175 0.0013793030520901084 0.001954523380845785 0.001995821250602603 -4.995023482479155E-4 7.606791332364082E-4 -2.7500244323164225E-4 9.196582832373679E-4 -2.499008951417636E-5 6.960841710679233E-4 -0.0016831536777317524 0.001611091778613627 -0.0022808914072811604 8.971994393505156E-4 -0.0017072588670998812 -0.0012803255813196301 -0.0014329293044283986 0.0019053865689784288 8.643596665933728E-4 6.222795927897096E-4 0.0013104219688102603 -8.390427683480084E-4 0.0014705845387652516 -0.0016735679237172008 -0.0016551293665543199 4.510246799327433E-4 -2.481212723068893E-4 -0.0017671361565589905 0.001728473580442369 0.0013818921288475394 0.0016329694772139192 6.592855788767338E-4 -6.455996190197766E-4 0.0014663874171674252 9.674399043433368E-4 0.0021410961635410786 1.8698514031711966E-4 -0.0012618987821042538 0.0012816358357667923 6.606632960028946E-4 1.3710725761484355E-4 -0.0018172290874645114 -0.0015487713972106576 0.0010808794759213924 -5.111339269205928E-4 0.002034152625128627 -3.2466425182064995E-5 -0.0013114360626786947 -0.0017498268280178308 0.002209355589002371 0.001874562818557024 3.3564193290658295E-4 -0.0012348670279607177 -5.637913127429783E-4 0.0011158600682392716 -0.0021425392478704453 7.044681697152555E-4 4.283716043573804E-5 -5.339543567970395E-4 -0.0016281859716400504 0.002003735164180398 -3.4807741758413613E-4 -4.1357343434356153E-4 8.680419996380806E-4 -0.002081905724480748 0.002017953433096409 -5.3769555961480364E-5 -0.002332437550649047 0.0019886211957782507 -0.0019728608895093203 0.001090089906938374 6.139065371826291E-4 -0.0017051364993676543 -1.23751990031451E-4 0.001118189305998385 2.4084643519017845E-4 0.0016836767317727208 0.0022932011634111404 -0.002056070137768984 2.9004469979554415E-4 -9.981505572795868E-4 -5.894012429052964E-5 0.0019811741076409817 3.0179263558238745E-4 -3.2258269493468106E-4 0.002264146227389574 -0.0015273347962647676 4.934908356517553E-4 -0.0015800531255081296 5.244964850135148E-4 -0.0012048566713929176 -0.0013484780211001635 -6.885760230943561E-4 -0.0016019083559513092 0.0020236570853739977 -0.0010119781363755465 4.7664783778600395E-4 -0.0015879623824730515 4.7421027556993067E-4 0.0014201797312125564 0.001812826027162373 2.544081653468311E-4 0.0014111163327470422 -0.001876714057289064 -0.001499454490840435 -0.0015953738475218415 0.0021111436653882265 4.303914029151201E-4 0.0015680256765335798 -0.001270048669539392 2.853369514923543E-4 1.0055962775368243E-4 -9.784519206732512E-4 -0.0015410201158374548 3.7232262548059225E-4 0.0011216681450605392 4.096324264537543E-4 -0.001846728497184813 -4.3549638940021396E-4 0.002024340210482478 -1.1406023986637592E-4 -0.0011783658992499113 -5.18474611453712E-4 -0.001224646926857531 -0.001845459220930934 -8.779204799793661E-4 -9.995305445045233E-4 4.072072042617947E-4 0.001049702288582921 4.701715079136193E-4 -9.998553432524204E-4 0.0019831210374832153 -2.09775007533608E-5 0.001616890775039792 5.908325547352433E-4 0.0013404216151684523 -3.686454729177058E-4 -0.0017452150350436568 0.0013337676646187901 -0.001223183237016201 -3.886286576744169E-4 0.0010250007035210729 -0.0019577592611312866 0.0013584726257249713 0.001820649136789143 7.28051585610956E-4 4.7828021342866123E-4 0.0014512644847854972 -6.486624479293823E-4 -1.7583859153091908E-4 -0.001674697152338922 5.029230960644782E-4 0.0016421303153038025 -6.387102766893804E-4 -9.18625621125102E-4
federal -5.067075835540891E-4 0.001418987289071083 -5.518265534192324E-4 0.0015487495111301541 -9.583583450876176E-4 -0.0010668450267985463 -0.00109250342939049 -0.0013279947452247143 8.484098361805081E-4 -3.459678846411407E-4 0.00135514116846025 -0.0014909643214195967 -0.0013122441014274955 -2.930416667368263E-4 -5.604672696790658E-5 -3.793690411839634E-4 -0.0013173989718779922 -5.323761724866927E-4 0.0010870636906474829 -2.4450052296742797E-4 -0.001123199355788529 3.677168569993228E-5 -3.154464066028595E-4 0.0015965386992320418 -0.0014357523759827018 9.899910946842283E-5 -5.3122152166906744E-5 -3.628224949352443E-4 0.0013181694084778428 7.649982580915093E-4 4.65206743683666E-4 -9.421553113497794E-4 -2.0422883972059935E-4 5.579214193858206E-4 7.042750075925142E-5 -8.419470395892859E-4 -0.0015435934765264392 1.7202070739585906E-4 -0.001073743449524045 -4.909407289233059E-5 -2.3285174393095076E-4 -3.207628324162215E-4 6.381141720339656E-4 -6.15925746387802E-5 0.001212702365592122 3.088538651354611E-4 -0.0013123402604833245 -0.0014733645366504788 0.0012737747747451067 -3.2024557003751397E-4 0.0012171731796115637 0.0011702938936650753 4.934718017466366E-4 -0.0013458163011819124 -0.0015833140350878239 9.406829485669732E-4 7.704336894676089E-4 3.8391102862078696E-5 0.001452327473089099 0.001495447475463152 1.7912452676682733E-6 9.345054277218878E-4 -6.706853164359927E-4 -8.768727420829237E-4 0.001617416855879128 -5.746410461142659E-4 0.0013942227233201265 8.112702635116875E-4 -9.895656257867813E-4 -0.0016284947050735354 2.5514510343782604E-4 3.1324918381869793E-4 5.818577483296394E-4 -6.110691465437412E-4 0.0012842381838709116 -0.0013156287604942918 -5.183542962186038E-4 1.8715998157858849E-4 2.1296407794579864E-4 -7.145312265492976E-4 -0.0014969879994168878 1.837048912420869E-4 -0.0016478054458275437 -0.001140888431109488 0.0013015000149607658 -8.541157003492117E-4 -4.922221414744854E-4 -0.0015853681834414601 -1.4563811419066042E-4 -8.157412521541119E-4 8.056452497839928E-4 9.243426029570401E-4 -1.0907352407230064E-4 6.086211069487035E-4 6.469006184488535E-4 0.0014615874970331788 -0.001204375410452485 -0.0015742754330858588 -5.339044728316367E-4 0.0016455147415399551 0.0011025751009583473 -0.001029997249133885 8.507127058692276E-4 0.0011790291173383594 -4.4147236621938646E-4 -3.2452477171318606E-5 7.402246701531112E-4 -7.843779167160392E-5 2.2538987104780972E-4 -8.919261745177209E-4 -1.1966093006776646E-4 -7.186468574218452E-4 -5.602172459475696E-4 -3.1979012419469655E-4 -7.297206902876496E-4 0.0014364211820065975 0.0013973190216347575 -5.430133314803243E-4 0.0011112840147688985 -6.013042875565588E-4 -9.222860680893064E-4 -0.0015006987378001213 5.313531728461385E-4 -1.8227813416160643E-4 7.517627091147006E-4 6.654397584497929E-4 8.621788583695889E-4 2.87170842057094E-4 5.138855194672942E-4 -7.915050082374364E-5 -0.001145676476880908 -0.0016108950367197394 2.811643644236028E-4 -2.622792380861938E-4 -9.178186301141977E-4 -1.9494729349389672E-4 -0.0010936374310404062 -0.0016302488511428237 5.418858490884304E-4 9.207762777805328E-4 -3.911493404302746E-4 8.535752422176301E-4 0.0013890285044908524 2.928143076132983E-4 -1.7435997142456472E-4 -0.0013454610016196966 -0.001633383915759623 0.0012495395494624972 5.485645961016417E-4 -8.683266350999475E-4 -0.0013092383742332458 -0.001294305780902505 -8.105692686513066E-4 -4.5865989523008466E-4 -1.4736645971424878E-4 0.0012102412292733788 -4.100716032553464E-4 -1.5587001689709723E-4 -4.457758623175323E-4 -0.001470171264372766 3.7884226185269654E-4 -5.816987832076848E-4 -2.1312868921086192E-4 -5.300628254190087E-4 0.0013538129860535264 0.0015403538709506392 -0.0013971012085676193 -7.985761039890349E-4 0.0015085841296240687 -4.5620667515322566E-4 -0.001467724796384573 -6.367146852426231E-5 -5.132181104272604E-4 9.4133015954867E-4 -3.874223039019853E-4 6.835318636149168E-4 -0.001568457460962236 -0.0012511205859482288 7.545577245764434E-4 -0.0015766742872074246 -5.811923183500767E-4 6.2949163839221E-4 -0.0015819162363186479 -0.0011589823989197612 8.353777811862528E-4 -0.0012073585530743003 -0.0015017807018011808 -0.0012364357244223356 -0.001175307435914874 -0.001334476051852107 -2.4347176076844335E-4 0.0010993402684107423 0.001256835414096713 9.848976042121649E-4 0.0016476823948323727 0.0012969874078407884 -2.4351039610337466E-4 1.238318145624362E-5 0.001156333601102233 0.001317879417911172 -2.772401785477996E-4 1.1442670074757189E-4 7.925407844595611E-4 0.001147699891589582 0.0014902785187587142 -6.973223062232137E-4 -0.0011343599762767553 -0.0015952708199620247 -2.3829075507819653E-4 -4.465241509024054E-4 0.00139141408726573 -0.0015592995332553983 0.0011105028679594398 -5.319308838807046E-4 3.723926056409255E-5 5.941234994679689E-4 0.0012784427963197231 0.0011844648979604244 -0.0013279137201607227 -5.3632706112693995E-5 1.1579091369640082E-4 8.285805233754218E-4 -3.200423961970955E-4 0.001232355018146336 2.128983469447121E-4 -0.0010400442406535149 -6.004153983667493E-4 -0.0010223620338365436 7.67841818742454E-4 2.503740834072232E-4 -0.0013648892054334283 0.0010660616680979729 -9.005229221656919E-4 0.0010048398980870843 -1.0438599565532058E-4 8.256828878074884E-4 -7.260529673658311E-5 -0.0012628375552594662 -0.0014318563044071198 -9.948400547727942E-4 -3.2683240715414286E-4 0.001155693898908794 -9.224651730619371E-4 -9.297330398112535E-4 2.2544534294866025E-4 0.001650456921197474 -4.61590061604511E-5 -2.341652289032936E-4 -4.5753110316582024E-4 1.9492825958877802E-4 -0.0015043828170746565 1.62423137226142E-4 -0.0013608429580926895 0.0011553994845598936 -0.0013997392961755395 9.129889076575637E-4 4.7869441914372146E-4 -9.525330970063806E-4 -0.0014506761217489839 4.2362447129562497E-4 -3.7331602652557194E-4 7.996857748366892E-4 -2.3604983289260417E-4 -0.0013787464704364538 0.0012624489609152079 -1.1522796557983384E-4 0.0014834392350167036 2.067001914838329E-4 -3.07062036881689E-5 3.2381873461417854E-4 4.3868314241990447E-4 -4.4710247311741114E-4 3.8861206849105656E-4 -0.0017142576398327947 6.748310406692326E-4 0.001590672880411148 0.0013798028230667114 -8.460915996693075E-4 2.6119296671822667E-4 -3.846102044917643E-4 -7.140960078686476E-4 0.0011442943941801786 0.00133504718542099 5.30227436684072E-4 2.1436972019728273E-4 6.544364732690156E-4 0.0010549621656537056 -0.0011775670573115349 2.681502955965698E-4 4.287656338419765E-4 0.0010871897684410214 2.3448349384125322E-4 -0.00132689718157053 9.3165721045807E-4 -8.826110861264169E-4 1.1034709314117208E-4 3.608941187849268E-5 2.2637292568106204E-4 -8.368485141545534E-4 1.4359781744133215E-5
democratic 2.8818086138926446E-4 2.484833530616015E-4 0.0013915218878537416 2.544917806517333E-4 -9.22186067327857E-4 1.361413742415607E-4 3.7199322832748294E-4 -5.675072898156941E-4 -0.0014523061690852046 4.278438282199204E-4 -0.0014695138670504093 7.217320962809026E-4 -0.0015373126370832324 0.0014837747439742088 0.0012669661082327366 3.6178375012241304E-4 5.751055432483554E-4 -4.27746053901501E-5 0.0013858596794307232 -1.2216709728818387E-4 5.40326873306185E-4 0.0014919250970706344 5.409999284893274E-4 5.884996498934925E-4 8.120068814605474E-4 0.0012854987289756536 0.0015753268962725997 -5.098352557979524E-4 -3.0732789309695363E-4 6.969875539653003E-4 -7.268355693668127E-4 -0.0011307373642921448 6.837790715508163E-4 4.9048343498725444E-5 -0.0011474618222564459 -0.0010233767097815871 -0.001459010993130505 -1.5427276957780123E-4 -9.150140103884041E-4 9.973030537366867E-4 -0.0011406473349779844 -2.414161826891359E-5 -5.070136394351721E-4 -6.194210145622492E-4 -0.0012363437563180923 -9.801153792068362E-4 -2.548670454416424E-4 -0.001237595803104341 0.0011558809783309698 -6.885836482979357E-4 -8.970712660811841E-4 0.0013771385420113802 9.937150171026587E-4 7.340915035456419E-4 6.996917072683573E-4 0.0011083537247031927 -8.205666090361774E-4 -9.100358875002712E-5 -0.001395519357174635 8.436787175014615E-4 -5.262864287942648E-4 -3.3391453325748444E-4 6.082243053242564E-4 5.211645038798451E-4 8.065415313467383E-4 3.594902591430582E-5 3.9791426388546824E-4 -7.246425957418978E-4 -0.00163246039301157 6.214560125954449E-4 -9.552879491820931E-4 -9.23851621337235E-4 2.0810775458812714E-4 -0.0011085558217018843 5.850869929417968E-4 7.297240081243217E-4 -0.0016567697748541832 0.0011032032780349255 -0.001052382285706699 6.631441647186875E-4 -2.1541696332860738E-4 4.7347554937005043E-4 7.415401632897556E-4 0.001158781349658966 -0.0010232020867988467 -9.908204665407538E-4 0.0013884943909943104 -4.371510003693402E-4 5.934579894528724E-5 4.249450867064297E-4 -9.540682076476514E-4 -4.959927755407989E-4 0.001170695060864091 2.1196770831011236E-4 -0.0013010771945118904 0.0016003107884898782 0.0012073949910700321 -9.41509148105979E-4 -2.967723412439227E-4 -0.0016356242122128606 -0.001563787693157792 9.436517721042037E-4 4.1870863060466945E-4 2.2064708173274994E-4 -0.0015710926381871104 9.493582183495164E-4 -5.6434515863657E-4 7.772798999212682E-4 -1.0593099432298914E-4 -0.0014614393003284931 -0.0010180216049775481 0.0016235546208918095 1.0167129948968068E-4 5.799049977213144E-4 0.001087658223696053 5.67032431717962E-4 2.157840208383277E-4 -3.1683166162110865E-4 -0.001223914441652596 -0.0010313198436051607 2.946269523818046E-4 1.2532157415989786E-4 -1.070069702109322E-4 -0.0015818654792383313 0.0014421386877074838 -0.0011514027137309313 -0.0013852374395355582 -9.37307660933584E-4 -3.859892603941262E-4 -0.0016733055235818028 -3.470813680905849E-4 -0.0011071880580857396 1.4035181084182113E-4 0.0010527727426961064 -4.742554447147995E-4 0.0015283024404197931 -5.38203283213079E-4 -3.591184504330158E-4 0.0014005224220454693 -0.0013786273775622249 0.0016418881714344025 6.95415772497654E-4 -0.0010374027770012617 0.0011759038316085935 -0.0010053518926724792 0.0011696555884554982 -0.00163492641877383 -3.784217406064272E-4 4.5777498598909006E-5 -1.4386048133019358E-4 -7.218082901090384E-4 0.001642972114495933 4.459284245967865E-4 -1.5860571875236928E-4 8.059540996327996E-4 -0.001112817320972681 7.436585146933794E-4 0.001168580143712461 -0.00102811842225492 -0.0010517556220293045 4.579148371703923E-4 -0.0010460758348926902 -8.31628916785121E-4 -0.0014366721734404564 0.0016516875475645065 -2.7936132391914725E-4 2.537226246204227E-4 -1.043934898916632E-4 -1.7569051124155521E-4 -0.0013714740052819252 0.0010234692599624395 0.0011643986217677593 -5.032144254073501E-4 -9.361522970721126E-4 -0.001328419428318739 -0.0013656130759045482 7.358526927419007E-4 -0.0011318244505673647 4.1892115405062214E-5 -9.651858708821237E-4 2.7737091295421124E-4 6.4870371716097E-5 -3.743792767636478E-4 -2.8207857394590974E-4 1.239446719409898E-4 -0.0011473973281681538 -3.2044132240116596E-5 1.6167137073352933E-4 -0.0011464336421340704 -6.064492044970393E-4 -5.006141145713627E-4 -0.0011622149031609297 6.966993096284568E-4 0.001285224687308073 1.7351360293105245E-4 -1.251789362868294E-4 -1.6732662334106863E-4 6.934563280083239E-4 1.2629853699763771E-5 -0.0016437082085758448 -4.092041926924139E-4 -1.7395359463989735E-4 7.892435532994568E-4 -3.7195850745774806E-4 -8.990351925604045E-4 -8.574209059588611E-4 -6.514946580864489E-4 -7.872013957239687E-4 0.0013704735320061445 -9.41841717576608E-5 1.789480884326622E-4 -0.0015251775039359927 -1.6317040717694908E-4 7.337516290135682E-4 5.049817846156657E-4 -0.0010010411497205496 0.001083466107957065 -5.92585711274296E-4 0.0016231591580435634 0.001464315690100193 -0.0014397158520296216 -8.724920335225761E-4 -9.975669672712684E-4 5.517068784683943E-4 1.519810757599771E-4 -0.001133226789534092 -2.4086766643449664E-4 8.256379078375176E-5 -4.7329298104159534E-4 3.1550315907225013E-4 -0.0015562762273475528 -0.0012350219767540693 -8.577767584938556E-5 3.4673893242143095E-4 -0.001525266095995903 -0.0016216920921579003 0.0010926276445388794 -0.0013022846542298794 0.0012176649179309607 0.0015193516155704856 0.0011443893890827894 4.036960599478334E-4 9.321425459347665E-4 -0.0014367541298270226 0.0014796304749324918 -1.2673609307967126E-4 2.823056420311332E-4 -4.824156712857075E-5 -2.959036501124501E-4 0.0016304767923429608 2.6734303901321255E-5 -0.0014155914541333914 1.8299213843420148E-4 0.0013165863929316401 0.001022353651933372 3.781619016081095E-4 -0.0013930500717833638 2.026665461016819E-4 1.2084875925211236E-4 0.0016069967532530427 -3.878894785884768E-4 1.39429175760597E-4 -6.941733881831169E-4 -4.524175019469112E-4 5.709669203497469E-4 0.0011099897092208266 3.9456377271562815E-4 0.0014433719916269183 -0.0011045075953006744 0.0014676755527034402 -9.283461258746684E-4 3.777491510845721E-4 -9.824397275224328E-4 -3.9145455230027437E-4 1.688880438450724E-4 -5.977390101179481E-4 7.336409180425107E-4 -4.7075178008526564E-4 -0.0010650490876287222 0.0014771980931982398 3.50606074789539E-4 9.386245510540903E-4 -0.0015896573895588517 4.353710028226487E-5 0.001613797270692885 -0.0014598333509638906 -0.001305807731114328 4.0091300616040826E-4 -0.0012818222166970372 0.001007573097012937 -0.0010093621676787734 5.283292848616838E-4 -0.001120238215662539 -0.0012719100341200829 7.76982560637407E-5 0.0016064703231677413 9.068005019798875E-4 0.0013306288747116923 -0.001139200059697032 -5.127074546180665E-4
party -2.986162144225091E-4 -0.0011468437733128667 0.001537666074000299 4.6430047950707376E-4 -4.414975119289011E-4 0.0012290114536881447 -0.0010070165153592825 8.230506209656596E-4 0.001335160806775093 9.804810397326946E-4 -0.0015733405016362667 3.611960564740002E-4 -0.0013749966165050864 -8.942370768636465E-4 -0.0011302673956379294 -9.176466846838593E-4 -0.0013477243483066559 -0.0016546327387914062 8.732923888601363E-4 4.663542495109141E-4 0.0012542556505650282 -0.0014018850633874536 0.0016482252394780517 -2.6454529142938554E-4 -0.0012932118261232972 3.7247529689921066E-5 -3.092471743002534E-4 0.0010232581989839673 3.773579082917422E-4 2.3047463037073612E-4 -3.562130150385201E-4 -0.0016494443407282233 -0.00124583940487355 -4.931397852487862E-4 -0.0013361723395064473 -0.0015889754286035895 -3.122592534055002E-5 -1.9434676505625248E-4 -3.5213882802054286E-4 3.4194678300991654E-4 -8.390055736526847E-4 0.0011832060990855098 -7.022998761385679E-4 0.0011265218490734696 0.001575157162733376 4.2478577233850956E-4 -5.783165688626468E-4 -0.0015839611878618598 0.0012341822730377316 0.001127751893363893 8.151244837790728E-4 7.594760390929878E-4 9.951044339686632E-4 3.878570278175175E-4 5.964604206383228E-4 7.970028091222048E-4 -4.659747064579278E-4 -0.0012052186066284776 6.71708956360817E-4 6.007509655319154E-4 4.8425246495753527E-4 -0.0015716892667114735 1.7188471974804997E-4 7.882872159825638E-5 -0.0014451860915869474 -0.0012136369477957487 0.0015932628884911537 0.0015942556783556938 -7.080520736053586E-4 7.278943085111678E-4 -1.5973341942299157E-4 -0.0015633665025234222 -0.0015303149120882154 -1.6006393707357347E-4 2.4787604343146086E-4 1.1562391591724008E-4 0.0014725137734785676 6.444918108172715E-4 0.0016905516386032104 -7.937218178994954E-4 0.0010490076383575797 -8.309861295856535E-4 7.42463453207165E-4 -4.707681655418128E-4 9.836314711719751E-4 7.190513424575329E-4 0.0015321486862376332 -1.3253044744487852E-4 3.5988856689073145E-4 5.541548016481102E-4 -3.2966231810860336E-4 -0.0011860986705869436 -7.409487443510443E-5 0.0012685087276622653 -3.179640771122649E-5 0.0013112355954945087 -0.0015511554665863514 0.001313767279498279 0.0011407777201384306 -9.450016659684479E-4 -6.37719058431685E-4 5.811919108964503E-4 2.426890714559704E-4 8.033455233089626E-4 -0.001210557296872139 -0.001656950218603015 -2.363823732594028E-4 2.187043137382716E-4 -8.553756633773446E-4 -5.707009113393724E-4 -0.0012528656516224146 -8.501800039084628E-5 -0.0012473359238356352 -3.443575988058001E-4 1.1065637227147818E-4 -0.0015380203258246183 4.6163046499714255E-4 -0.0013296735705807805 7.220830302685499E-4 -4.974466282874346E-4 -2.352196752326563E-4 -4.389350360725075E-4 -1.603440432518255E-5 -4.3928850209340453E-4 -1.3912444410379976E-4 -0.0016209973255172372 3.455039986874908E-4 1.6015699657145888E-4 -0.0015302901156246662 -0.0016155586345121264 -0.0012104002526029944 -0.0012184297665953636 -7.44287739507854E-4 3.5099074011668563E-4 -3.433861711528152E-4 -9.48543893173337E-4 9.568921523168683E-4 9.770747274160385E-4 8.774138987064362E-4 1.2410248746164143E-4 -4.369955859147012E-4 2.540774585213512E-4 -0.0010691204806789756 1.964980037882924E-5 -5.312475841492414E-4 5.590945365838706E-4 -0.001122838701121509 -9.049802902154624E-4 9.367244638269767E-5 4.960558726452291E-4 -5.867536528967321E-4 -8.413202594965696E-4 -8.787580882199109E-4 -0.0010334789985790849 -9.427735931240022E-4 -7.005008519627154E-4 -0.0014458533842116594 0.0016312701627612114 9.183060610666871E-4 2.879546955227852E-4 9.140294860117137E-4 -0.0012173160212114453 0.0013087759725749493 2.3852438607718796E-4 -0.0014066201401874423 0.0012012770166620612 -0.0014301890041679144 -0.0012294355547055602 -1.870978121587541E-5 -0.001513223396614194 -2.0852430316153914E-4 -0.0015878842677921057 6.986962398514152E-5 -1.8335839558858424E-4 -2.5193780311383307E-4 2.884510322473943E-4 -0.0014371189754456282 -1.5133587294258177E-4 -8.905697613954544E-4 -5.438957014121115E-4 -0.001332234707660973 -0.0012594179715961218 0.0013390880776569247 -0.0014482428086921573 -0.0015636725584045053 6.250997539609671E-4 0.0015775775536894798 -0.0012978177983313799 1.6734344535507262E-4 0.0014373855665326118 0.001280125929042697 0.0011355736060068011 7.900011842139065E-4 -0.001430188538506627 -7.619825191795826E-4 -0.001348116435110569 -8.965012384578586E-4 -4.621394327841699E-4 -0.0012294763000681996 6.552545819431543E-4 0.001371291815303266 -0.001091234153136611 2.327327529201284E-4 5.372975138016045E-4 3.584903315640986E-4 3.7140047061257064E-4 -0.0015666976105421782 -8.152694790624082E-4 -6.893707322888076E-4 -0.00139661505818367 0.0013077142648398876 -9.385128505527973E-4 -1.7892487812787294E-4 5.725706432713196E-5 4.6881227171979845E-4 -3.5504758125171065E-4 2.996490220539272E-4 -0.0013502598740160465 0.0012241631047800183 -4.1022500954568386E-4 -0.0015852883225306869 -8.418186916969717E-4 0.0014732193667441607 0.0013283153530210257 -0.0014558627735823393 0.001374522689729929 -1.7280140309594572E-4 5.669888923875988E-4 -7.605007267557085E-4 -3.875797556247562E-4 0.001221984624862671 -9.404311422258615E-4 6.890880176797509E-4 -4.0164051461033523E-4 -5.365634569898248E-4 7.131600868888199E-4 -0.0012311789905652404 4.639301332645118E-4 9.98003175482154E-4 -0.0012991534313187003 -6.28570793196559E-4 -5.015865317545831E-4 -0.0013360880548134446 -8.987795445136726E-5 -1.2254745524842292E-4 0.0012277646455913782 -2.9423265368677676E-4 -4.6745751751586795E-4 -0.001292176079005003 0.0015745220007374883 -4.505048127612099E-5 -1.2830569176003337E-4 0.0015052463859319687 -6.041518063284457E-4 0.0012294105254113674 -2.545743191149086E-4 3.0298360798042268E-5 -9.474397520534694E-4 0.001611874089576304 1.9898818572983146E-4 -1.5332702605519444E-4 -0.0014837353955954313 -4.5120538561604917E-4 0.0011651379754766822 1.1354884190950543E-4 -6.139494362287223E-4 0.0015516722341999412 0.0012955607380717993 -0.0015545758651569486 0.001608287333510816 -9.855915559455752E-4 4.792916588485241E-4 -8.710129768587649E-4 -0.0014743711799383163 0.0016273873625323176 -0.0014360513305291533 -6.588487885892391E-4 -7.150904857553542E-4 -0.0013124140677973628 0.0011878302320837975 0.0010865904623642564 3.896957423421554E-8 6.362526910379529E-4 3.411250654608011E-4 -6.224873359315097E-4 -1.0397908044978976E-4 -6.733462796546519E-4 -0.001059899223037064 0.0011027277214452624 -3.804298467002809E-4 -0.001126523013226688 6.498235743492842E-4 -8.658625883981586E-4 -7.740682340227067E-4 4.089611757081002E-4 -3.49833513610065E-4 -8.320806082338095E-4 7.587691652588546E-4 -7.782559841871262E-4 2.973846276290715E-4
order -0.0013443641364574432 -0.0010304354364052415 -2.8460330213420093E-4 9.335267823189497E-4 -0.0010024175280705094 -0.0013217541854828596 -2.2424152120947838E-4 0.0010154523188248277 -0.0010644750436767936 9.157902968581766E-5 -0.0011723943753167987 -3.3947924384847283E-4 -0.0011987214675173163 -9.560827165842056E-4 5.071345949545503E-4 7.225151639431715E-4 6.350703188218176E-4 5.008414736948907E-4 -0.0012657277984544635 -2.4713773746043444E-4 0.0011119248811155558 -4.907150869257748E-4 -7.882851059548557E-4 -6.868154741823673E-4 -0.0010783225297927856 -0.0010078558698296547 7.369214436039329E-4 -7.463094079867005E-4 -0.001178369508124888 -8.468864834867418E-4 4.1670817881822586E-4 -6.237096968106925E-4 -6.458109128288925E-4 0.0012683526147156954 1.3334749382920563E-4 -7.81331182224676E-5 0.0014296128647401929 8.4440823411569E-4 4.5928239705972373E-4 -9.681181109044701E-5 0.0014298238093033433 0.0014423461398109794 -0.0011907691368833184 0.0012830911437049508 8.316028979606926E-4 6.965193315409124E-4 -0.0014090307522565126 -0.0016045256052166224 -1.0560880582488608E-5 7.199575193226337E-4 0.0016491884598508477 -8.032540063140914E-5 0.0011480147950351238 -4.493482119869441E-4 -9.053550893440843E-4 4.612008706317283E-5 -0.0012640833156183362 7.862486527301371E-4 -9.4241724582389E-4 7.515761535614729E-4 0.0011478541418910027 -0.0014078932581469417 -0.0014620861038565636 -0.001124060247093439 9.42025741096586E-4 0.001180604798719287 -0.0011612398084253073 8.02080612629652E-5 2.79437517747283E-4 3.6685712984763086E-4 -2.610729425214231E-4 -0.0013602784601971507 0.0016077256295830011 0.0013420074246823788 -5.667789955623448E-4 8.399878861382604E-4 -3.180501516908407E-4 -0.0016066746320575476 -6.198898190632463E-4 6.526923971250653E-4 -9.684848482720554E-4 4.779546579811722E-4 8.854613406583667E-5 7.790474774083123E-5 9.452516678720713E-4 -0.0015227734111249447 2.583744062576443E-4 0.0012866094475612044 4.5127328485250473E-4 -0.0016517974436283112 8.538340334780514E-4 7.870378613006324E-5 -3.5127601586282253E-4 -1.7329759430140257E-4 4.5868405140936375E-4 -9.47945227380842E-4 -5.162115558050573E-4 1.0057486360892653E-4 0.0014212997630238533 5.616782800643705E-5 1.8769619055092335E-4 -0.0011455068597570062 -7.075940375216305E-4 5.262453341856599E-4 0.001008566003292799 -0.001173409284092486 4.1156308725476265E-4 3.4776655957102776E-4 -0.0010681096464395523 -9.736442589201033E-4 -7.923587691038847E-4 -0.0014388272538781166 -0.0011906668078154325 8.989006746560335E-4 -6.265450501814485E-4 -0.00163886952213943 3.653753374237567E-4 -5.662109469994903E-4 -9.815930388867855E-4 -0.0012778540840372443 -0.0013589289737865329 9.256924968212843E-4 0.0011947185266762972 -0.0015083426842465997 -1.144084490078967E-5 -5.618243594653904E-4 0.0015658540651202202 -5.126857431605458E-4 -4.57524525700137E-4 -5.5032764066709206E-5 -4.8309494741261005E-4 9.624726371839643E-4 9.744191775098443E-4 0.0013567222049459815 -6.158720934763551E-4 1.893213193397969E-4 -0.0015589328249916434 0.0011924246791750193 0.001214472926221788 9.735087514854968E-4 -7.870267727412283E-4 2.4471417418681085E-4 0.0010384571505710483 -6.819574628025293E-4 -2.5415801792405546E-4 -0.0016413226258009672 -9.432003716938198E-4 0.001534787705168128 -0.0010128736030310392 0.001244682352989912 7.319905562326312E-4 -4.588045703712851E-4 -2.552451041992754E-4 0.0011428013676777482 -8.742724894545972E-4 -4.6431602095253766E-4 -5.384923424571753E-4 1.0506161925150082E-4 8.136818069033325E-4 3.7486624205484986E-4 -1.4477057266049087E-4 -0.0014939167303964496 -8.090966148301959E-4 0.0015001024585217237 0.0013953727902844548 0.0010659677209332585 2.4207751266658306E-5 -4.0023570181801915E-4 9.02467523701489E-4 8.485316066071391E-4 6.580560584552586E-4 -0.001603633165359497 -1.8529196677263826E-4 -8.370719297090545E-5 0.0016659643733873963 0.0013748093042522669 -0.0011675857240334153 7.556526688858867E-4 -0.001303992816247046 0.0010349082294851542 -0.0010768398642539978 0.001512244576588273 -7.551215821877122E-4 -0.0010676744859665632 -8.860381785780191E-4 2.3587390023749322E-4 0.0015288341091945767 0.0015082246391102672 -0.001480886829085648 0.0013744478346779943 -8.688592351973057E-4 2.457195951137692E-4 0.0012102851178497076 -7.492869044654071E-4 -0.0016277041286230087 8.880878158379346E-5 -6.964674685150385E-5 -6.437585689127445E-4 -9.9375459831208E-4 4.329807125031948E-4 5.460123647935688E-4 9.81261022388935E-4 0.0010005499934777617 7.915027090348303E-4 7.212465279735625E-4 -0.001385144074447453 3.8151093758642673E-4 7.374044507741928E-4 -8.039572858251631E-4 0.001387711730785668 0.0016948261763900518 -2.089664776576683E-4 0.0010092223528772593 -0.0011788437841460109 -0.0010542260715737939 -2.3483736731577665E-4 6.073586409911513E-4 0.001345230033621192 2.709277905523777E-4 9.439953719265759E-4 1.9744136079680175E-4 -9.695944027043879E-4 -0.0016219622921198606 -1.1398531933082268E-4 -3.3137050922960043E-4 7.507340633310378E-4 -9.77428862825036E-4 0.0013392968103289604 -8.860864327289164E-4 -7.584363920614123E-4 -7.888884865678847E-4 -2.9465006082318723E-4 2.7007906464859843E-4 -0.0012837378308176994 -2.968844200950116E-4 -1.1125654054922052E-5 3.563538193702698E-4 -2.7083102031610906E-4 -5.084411823190749E-4 -7.484403322450817E-4 -0.0010375333949923515 0.0014754458097741008 -0.0010114754550158978 -0.0011252730619162321 -6.28135574515909E-4 3.404791059438139E-4 -2.9418582926155068E-5 -2.0323210628703237E-4 1.5938666183501482E-4 -0.0011443202383816242 0.00125892274081707 2.9889034340158105E-4 1.1719427129719406E-4 8.159113931469619E-4 0.0010393979027867317 -7.079464267008007E-4 0.00149936368688941 7.279072306118906E-4 -0.0014801177894696593 1.4237935829441994E-4 -0.0015017690602689981 2.982879523187876E-4 0.0014478268567472696 -0.001095629413612187 -1.5357778465840966E-4 8.676556753925979E-4 -2.0531589689198881E-4 -7.994783809408545E-4 -0.001435452257283032 4.8153390525840223E-4 -0.0010111690498888493 8.824035176075995E-4 -1.689092823653482E-5 -6.823597359471023E-4 1.8401339184492826E-4 -1.5401474956888705E-4 4.539462679531425E-4 0.0012860058341175318 0.0011104202130809426 3.01028456306085E-4 0.0014006691053509712 -8.781042415648699E-4 0.001599529874511063 -9.537237347103655E-4 -8.12570855487138E-4 -0.0015280015068128705 7.204886642284691E-4 -0.0010730786016210914 -0.001634307554922998 1.8309004371985793E-4 4.539829969871789E-4 -5.6815024436218664E-5 -3.269831067882478E-4 -0.0011534282239153981 -1.5825910668354481E-4 -4.007647803518921E-4 5.021555116400123E-4 0.001368484809063375 -0.0015275801997631788 0.0014001678209751844
